{"learner":{"attributes":{"scikit_learn":"{\"_estimator_type\": \"regressor\"}"},"feature_names":["Solar_Irradiation_W","Outdoor_Air_Temp_C","Outdoor_Air_Humidity_percent","Wind_Speed_ms","Wind_Direction_deg","Hour_sin","Hour_cos","DayOfWeek_sin","DayOfWeek_cos","Wind_Direction_sin","Wind_Direction_cos","HDD","CDD","Temp_Stress_x_Hour","Is_Solar_Active","Lag_24h_Load","EWMA_24h_Load","Is_Holiday","year","month","day","hour","weekday","dayofyear","is_weekend","quarter","week_of_year","season","is_peak_hour","Temp_x_Hour","Is_High_Temp","Is_Low_Temp","Lag_6h_Load","Lag_12h_Load","Lag_48h_Load","Rolling_Mean_12h","Rolling_Mean_24h","Rolling_Std_24h","Comfort_Index"],"feature_types":["float","float","float","float","float","float","float","float","float","float","float","float","float","float","int","float","float","int","int","int","int","int","int","int","int","int","int","int","int","float","int","int","float","float","float","float","float","float","float"],"gradient_booster":{"model":{"cats":{"enc":[],"feature_segments":[],"sorted_idx":[]},"gbtree_model_param":{"num_parallel_tree":"1","num_trees":"300"},"iteration_indptr":[0,1,2,3,4,5,6,7,8,9,10,11,12,13,14,15,16,17,18,19,20,21,22,23,24,25,26,27,28,29,30,31,32,33,34,35,36,37,38,39,40,41,42,43,44,45,46,47,48,49,50,51,52,53,54,55,56,57,58,59,60,61,62,63,64,65,66,67,68,69,70,71,72,73,74,75,76,77,78,79,80,81,82,83,84,85,86,87,88,89,90,91,92,93,94,95,96,97,98,99,100,101,102,103,104,105,106,107,108,109,110,111,112,113,114,115,116,117,118,119,120,121,122,123,124,125,126,127,128,129,130,131,132,133,134,135,136,137,138,139,140,141,142,143,144,145,146,147,148,149,150,151,152,153,154,155,156,157,158,159,160,161,162,163,164,165,166,167,168,169,170,171,172,173,174,175,176,177,178,179,180,181,182,183,184,185,186,187,188,189,190,191,192,193,194,195,196,197,198,199,200,201,202,203,204,205,206,207,208,209,210,211,212,213,214,215,216,217,218,219,220,221,222,223,224,225,226,227,228,229,230,231,232,233,234,235,236,237,238,239,240,241,242,243,244,245,246,247,248,249,250,251,252,253,254,255,256,257,258,259,260,261,262,263,264,265,266,267,268,269,270,271,272,273,274,275,276,277,278,279,280,281,282,283,284,285,286,287,288,289,290,291,292,293,294,295,296,297,298,299,300],"tree_info":[0,0,0,0,0,0,0,0,0,0,0,0,0,0,0,0,0,0,0,0,0,0,0,0,0,0,0,0,0,0,0,0,0,0,0,0,0,0,0,0,0,0,0,0,0,0,0,0,0,0,0,0,0,0,0,0,0,0,0,0,0,0,0,0,0,0,0,0,0,0,0,0,0,0,0,0,0,0,0,0,0,0,0,0,0,0,0,0,0,0,0,0,0,0,0,0,0,0,0,0,0,0,0,0,0,0,0,0,0,0,0,0,0,0,0,0,0,0,0,0,0,0,0,0,0,0,0,0,0,0,0,0,0,0,0,0,0,0,0,0,0,0,0,0,0,0,0,0,0,0,0,0,0,0,0,0,0,0,0,0,0,0,0,0,0,0,0,0,0,0,0,0,0,0,0,0,0,0,0,0,0,0,0,0,0,0,0,0,0,0,0,0,0,0,0,0,0,0,0,0,0,0,0,0,0,0,0,0,0,0,0,0,0,0,0,0,0,0,0,0,0,0,0,0,0,0,0,0,0,0,0,0,0,0,0,0,0,0,0,0,0,0,0,0,0,0,0,0,0,0,0,0,0,0,0,0,0,0,0,0,0,0,0,0,0,0,0,0,0,0,0,0,0,0,0,0,0,0,0,0,0,0,0,0,0,0,0,0,0,0,0,0,0,0,0,0,0,0,0,0],"trees":[{"base_weights":[2.1729979E-1,-4.1543973E2,3.268629E2,1.652349E2,-4.749706E2,-1.0823382E2,5.281502E2,-2.2440106E2,4.0884784E2,-6.124822E2,-3.595851E2,-2.2114604E2,9.060618E1,7.406666E2,2.0840753E2,-4.8101382E2,-7.78834E1,2.7242307E2,5.608561E2,-7.428039E2,-5.649357E2,-4.0925818E2,-2.1557242E2,-3.9820697E2,-1.649967E2,-5.4347157E1,3.0060046E2,4.4296124E2,1.0015466E3,8.1712E1,5.3174896E2,-6.859394E2,-3.6193735E2,-3.6706708E2,-1.7413424E1,-2.1365729E2,2.876629E2,4.3212393E2,6.4773413E2,-8.4086346E2,-6.985717E2,-5.836593E2,-4.2469556E2,-4.6083835E2,-3.583561E2,4.4098473E1,-2.699706E2,-5.071944E2,-3.4398053E2,-2.7859982E2,-9.4020294E1,-1.8970465E2,1.5559055E1,2.2026585E2,4.4966595E2,1.7826544E2,5.557795E2,8.8993964E2,1.2488077E3,-2.8927597E1,2.7384277E2,4.2403177E2,7.4990564E2,-3.472615E1,1.2757495E1,-1.4807245E1,-3.3989246E1,-2.6593367E1,-1.6590403E1,3.0022337E0,-9.7806E0,2.3590828E1,-1.2643252E1,1.6481535E1,8.147787E0,3.429855E1,2.0151758E1,3.494989E1,2.2154184E1,-4.395933E1,-4.0120853E1,-3.558137E1,-2.8383991E1,-3.0115326E1,-2.5828375E1,-7.877994E0,-2.3545942E1,-2.6244879E1,-2.158386E1,-2.1700682E1,-1.5525722E1,1.2108242E1,-1.2137645E0,-1.5346384E1,-6.719996E0,-3.0643446E1,-2.3580284E1,-1.9325516E1,-1.5750191E1,-1.6615822E1,-1.1778899E1,-8.770126E0,-9.703936E-1,-1.3819056E1,-7.371503E0,-2.3417766E0,3.3947632E0,7.6882234E0,1.5219222E1,2.6208109E1,1.8192982E1,-1.8540486E0,1.3522821E1,3.0129347E1,1.8715452E1,3.856567E1,4.8678177E1,4.817669E1,6.788427E1,-6.44611E0,5.1394706E0,1.0176557E0,1.8507933E1,1.8788387E1,3.778664E1,3.407984E1,4.906905E1],"categories":[],"categories_nodes":[],"categories_segments":[],"categories_sizes":[],"default_left":[0,0,0,0,0,0,0,0,0,0,0,0,0,0,0,0,0,0,0,0,0,0,0,0,0,0,0,0,0,0,0,0,0,0,0,0,0,0,0,0,0,0,0,0,0,0,0,0,0,0,0,0,0,0,0,0,0,0,0,0,0,0,0,0,0,0,0,0,0,0,0,0,0,0,0,0,0,0,0,0,0,0,0,0,0,0,0,0,0,0,0,0,0,0,0,0,0,0,0,0,0,0,0,0,0,0,0,0,0,0,0,0,0,0,0,0,0,0,0,0,0,0,0,0,0,0,0],"id":0,"left_children":[1,3,5,7,9,11,13,15,17,19,21,23,25,27,29,31,33,35,37,39,41,43,45,47,49,51,53,55,57,59,61,63,65,67,69,71,73,75,77,79,81,83,85,87,89,91,93,95,97,99,101,103,105,107,109,111,113,115,117,119,121,123,125,-1,-1,-1,-1,-1,-1,-1,-1,-1,-1,-1,-1,-1,-1,-1,-1,-1,-1,-1,-1,-1,-1,-1,-1,-1,-1,-1,-1,-1,-1,-1,-1,-1,-1,-1,-1,-1,-1,-1,-1,-1,-1,-1,-1,-1,-1,-1,-1,-1,-1,-1,-1,-1,-1,-1,-1,-1,-1,-1,-1,-1,-1,-1,-1],"loss_changes":[1.6276275E10,1.823614E9,5.879004E9,4.65771E8,7.5896115E8,4.76732E8,3.1184364E9,7.094811E7,6.245437E7,1.348393E8,1.8604006E8,1.3457683E8,2.3412554E8,2.1407908E9,7.5069805E8,1.6491392E7,2.1030384E7,1.186204E7,1.5679648E7,2.4708352E7,4.1760256E7,5.062579E7,9.430048E7,1.9092096E7,8.289517E7,4.3066012E7,3.7514784E7,3.8447053E8,4.0435814E8,2.7992365E8,1.2091443E8,2.204776E6,8.916304E6,1.032148E6,1.3759456E7,1.4362248E6,8.032336E6,3.991552E6,8.607776E6,1.9584E6,6.47424E6,1.7342464E7,2.3238656E7,1.7715968E7,3.5123584E7,1.5674599E7,2.7610528E7,3.776416E6,2.564832E6,9.059328E6,3.843923E7,5.638788E6,9.806199E6,1.1381752E7,6.834368E6,7.644405E7,7.646797E7,9.970842E7,1.4054195E8,1.10083224E8,1.1747782E8,5.5043904E7,2.6274368E7,0E0,0E0,0E0,0E0,0E0,0E0,0E0,0E0,0E0,0E0,0E0,0E0,0E0,0E0,0E0,0E0,0E0,0E0,0E0,0E0,0E0,0E0,0E0,0E0,0E0,0E0,0E0,0E0,0E0,0E0,0E0,0E0,0E0,0E0,0E0,0E0,0E0,0E0,0E0,0E0,0E0,0E0,0E0,0E0,0E0,0E0,0E0,0E0,0E0,0E0,0E0,0E0,0E0,0E0,0E0,0E0,0E0,0E0,0E0,0E0,0E0,0E0,0E0,0E0],"parents":[2147483647,0,0,1,1,2,2,3,3,4,4,5,5,6,6,7,7,8,8,9,9,10,10,11,11,12,12,13,13,14,14,15,15,16,16,17,17,18,18,19,19,20,20,21,21,22,22,23,23,24,24,25,25,26,26,27,27,28,28,29,29,30,30,31,31,32,32,33,33,34,34,35,35,36,36,37,37,38,38,39,39,40,40,41,41,42,42,43,43,44,44,45,45,46,46,47,47,48,48,49,49,50,50,51,51,52,52,53,53,54,54,55,55,56,56,57,57,58,58,59,59,60,60,61,61,62,62],"right_children":[2,4,6,8,10,12,14,16,18,20,22,24,26,28,30,32,34,36,38,40,42,44,46,48,50,52,54,56,58,60,62,64,66,68,70,72,74,76,78,80,82,84,86,88,90,92,94,96,98,100,102,104,106,108,110,112,114,116,118,120,122,124,126,-1,-1,-1,-1,-1,-1,-1,-1,-1,-1,-1,-1,-1,-1,-1,-1,-1,-1,-1,-1,-1,-1,-1,-1,-1,-1,-1,-1,-1,-1,-1,-1,-1,-1,-1,-1,-1,-1,-1,-1,-1,-1,-1,-1,-1,-1,-1,-1,-1,-1,-1,-1,-1,-1,-1,-1,-1,-1,-1,-1,-1,-1,-1,-1],"split_conditions":[1.29E3,-2.5881904E-1,-4.3388373E-1,1.120106E3,1.018E3,2.186E3,-2.5881904E-1,9.302514E2,1.3547515E3,8.4E2,1.912E3,1.1535587E3,1.5031608E3,1.5737756E3,1.778E3,4E0,0E0,-4.3388373E-1,1.4691666E3,7.22E2,1.748E3,1.126E3,7.0710677E-1,1.0117007E3,1.622E3,1.2897076E3,1.7028417E3,1.293451E3,1.89525E3,6.234898E-1,2.122E3,1.57E1,3.64E2,3E0,1.2E1,2.5E0,-5E-1,3.4E1,1.508E3,6.6E2,1.5846666E3,1.5798334E3,8.660254E-1,-4.3388373E-1,-4.3388373E-1,2.5881904E-1,2.334E3,8.893117E2,1.0797766E3,1.418E3,1.3547515E3,1.1884286E3,1.3886736E3,2.71E1,-5E-1,1.1429958E3,1.4E1,1.6923334E3,2.628E2,1.522E3,1E0,6.234898E-1,2.448E3,-3.472615E1,1.2757495E1,-1.4807245E1,-3.3989246E1,-2.6593367E1,-1.6590403E1,3.0022337E0,-9.7806E0,2.3590828E1,-1.2643252E1,1.6481535E1,8.147787E0,3.429855E1,2.0151758E1,3.494989E1,2.2154184E1,-4.395933E1,-4.0120853E1,-3.558137E1,-2.8383991E1,-3.0115326E1,-2.5828375E1,-7.877994E0,-2.3545942E1,-2.6244879E1,-2.158386E1,-2.1700682E1,-1.5525722E1,1.2108242E1,-1.2137645E0,-1.5346384E1,-6.719996E0,-3.0643446E1,-2.3580284E1,-1.9325516E1,-1.5750191E1,-1.6615822E1,-1.1778899E1,-8.770126E0,-9.703936E-1,-1.3819056E1,-7.371503E0,-2.3417766E0,3.3947632E0,7.6882234E0,1.5219222E1,2.6208109E1,1.8192982E1,-1.8540486E0,1.3522821E1,3.0129347E1,1.8715452E1,3.856567E1,4.8678177E1,4.817669E1,6.788427E1,-6.44611E0,5.1394706E0,1.0176557E0,1.8507933E1,1.8788387E1,3.778664E1,3.407984E1,4.906905E1],"split_indices":[34,6,7,16,34,34,6,16,16,34,32,16,16,16,34,23,7,7,36,34,32,34,6,16,34,16,16,16,36,8,34,1,23,23,21,13,6,23,33,34,35,36,6,7,7,6,32,16,16,34,16,16,16,1,6,16,21,36,29,34,28,8,34,0,0,0,0,0,0,0,0,0,0,0,0,0,0,0,0,0,0,0,0,0,0,0,0,0,0,0,0,0,0,0,0,0,0,0,0,0,0,0,0,0,0,0,0,0,0,0,0,0,0,0,0,0,0,0,0,0,0,0,0,0,0,0,0],"split_type":[0,0,0,0,0,0,0,0,0,0,0,0,0,0,0,0,0,0,0,0,0,0,0,0,0,0,0,0,0,0,0,0,0,0,0,0,0,0,0,0,0,0,0,0,0,0,0,0,0,0,0,0,0,0,0,0,0,0,0,0,0,0,0,0,0,0,0,0,0,0,0,0,0,0,0,0,0,0,0,0,0,0,0,0,0,0,0,0,0,0,0,0,0,0,0,0,0,0,0,0,0,0,0,0,0,0,0,0,0,0,0,0,0,0,0,0,0,0,0,0,0,0,0,0,0,0,0],"sum_hessian":[1.19877E5,5.2751E4,6.7126E4,4.905E3,4.7846E4,2.1232E4,4.5894E4,1.887E3,3.018E3,2.1828E4,2.6018E4,1.3542E4,7.69E3,2.7569E4,1.8325E4,6.85E2,1.202E3,1.592E3,1.426E3,5.831E3,1.5997E4,1.9344E4,6.674E3,3.259E3,1.0283E4,4.55E3,3.14E3,1.2877E4,1.4692E4,1.3167E4,5.158E3,2.5E2,4.35E2,2.07E2,9.95E2,4.8E1,1.544E3,5.77E2,8.49E2,1.807E3,4.024E3,1.411E4,1.887E3,9.604E3,9.74E3,1.156E3,5.518E3,1.08E3,2.179E3,3.953E3,6.33E3,1.549E3,3.001E3,2.042E3,1.098E3,3.849E3,9.028E3,1.0126E4,4.566E3,8.356E3,4.811E3,3.455E3,1.703E3,2.48E2,2E0,3.62E2,7.3E1,3.4E1,1.73E2,6.94E2,3.01E2,2E0,4.6E1,1.154E3,3.9E2,5.7E1,5.2E2,6.77E2,1.72E2,8.94E2,9.13E2,3.655E3,3.69E2,1.1035E4,3.075E3,2.79E2,1.608E3,2.999E3,6.605E3,3.77E3,5.97E3,2.96E2,8.6E2,4.335E3,1.183E3,2.68E2,8.12E2,8.78E2,1.301E3,1.755E3,2.198E3,3.027E3,3.303E3,5.06E2,1.043E3,1.369E3,1.632E3,1.142E3,9E2,5.85E2,5.13E2,1.154E3,2.695E3,7.175E3,1.853E3,4.191E3,5.935E3,1.264E3,3.302E3,4.75E3,3.606E3,1.325E3,3.486E3,3.018E3,4.37E2,1.318E3,3.85E2],"tree_param":{"num_deleted":"0","num_feature":"39","num_nodes":"127","size_leaf_vector":"1"}},{"base_weights":[-2.91697E-1,-3.611847E2,4.0042786E2,-5.1988916E2,-1.696621E2,2.1940973E2,7.6995905E2,-6.372312E2,-4.434926E2,-2.7733978E2,2.0158197E2,-7.267845E1,3.420823E2,1.5798506E2,9.2110144E2,-7.535863E2,-5.922138E2,-1.0505721E2,-4.6836227E2,-3.2893283E2,-1.9980011E2,5.1969745E2,-6.473303E1,-1.1514398E2,1.521933E2,2.7699435E2,7.318636E2,6.13266E1,3.6678424E2,8.049486E2,1.217104E3,-8.211479E2,-7.125959E2,-3.2447702E2,-6.05529E2,-3.9611298E2,1.43056E2,-5.1436945E2,-4.3044547E2,-3.7612067E2,-2.984656E2,-2.7171356E2,-1.4352008E2,3.426542E2,6.9578754E2,9.598283E1,-2.3023671E2,-2.3465955E2,-6.457623E1,-2.833797E0,2.3405212E2,1.24381676E2,4.595059E2,8.667473E2,3.550859E2,-1.9426043E1,1.393463E2,2.0780917E2,4.3145813E2,7.1630133E2,9.145583E2,1.0770562E3,1.3640938E3,-4.177984E1,-3.8253296E1,-3.582423E1,-2.2719254E1,-2.7034689E1,2.774189E0,-3.2258465E1,-2.9093475E1,-2.5460417E1,-8.328976E0,-2.298487E1,1.04530115E1,-2.3344587E1,-2.6763388E1,-1.8827137E1,-2.2605268E1,-1.9815252E1,-1.628189E1,2.2747316E0,-1.5720906E1,-1.8753141E1,-1.2648993E1,5.740519E0,-8.624601E0,6.689792E0,2.2465467E1,3.7692528E1,2.5393568E1,-3.0594468E-1,1.0346429E1,-1.5750743E1,-7.389904E0,-1.8414923E1,-1.05164795E1,-8.027049E0,-8.912843E-1,-5.9988527E0,1.8277239E0,7.0759835E0,1.4614883E1,3.3449936E-1,9.756677E0,1.8884165E1,2.6946415E1,2.6408115E1,4.941893E1,5.764044E0,2.1960732E1,-4.4328775E0,1.7022527E0,3.639363E0,1.1630817E1,3.9213796E0,1.3009872E1,1.5886551E1,2.4321882E1,1.9692495E1,3.6594704E1,2.8165268E1,4.626558E1,4.54221E1,5.6238995E1,6.2175426E1,7.175178E1],"categories":[],"categories_nodes":[],"categories_segments":[],"categories_sizes":[],"default_left":[0,0,0,0,0,0,0,0,0,0,0,0,0,0,0,0,0,0,0,0,0,0,0,0,0,0,0,0,0,0,0,0,0,0,0,0,0,0,0,0,0,0,0,0,0,0,0,0,0,0,0,0,0,0,0,0,0,0,0,0,0,0,0,0,0,0,0,0,0,0,0,0,0,0,0,0,0,0,0,0,0,0,0,0,0,0,0,0,0,0,0,0,0,0,0,0,0,0,0,0,0,0,0,0,0,0,0,0,0,0,0,0,0,0,0,0,0,0,0,0,0,0,0,0,0,0,0],"id":1,"left_children":[1,3,5,7,9,11,13,15,17,19,21,23,25,27,29,31,33,35,37,39,41,43,45,47,49,51,53,55,57,59,61,63,65,67,69,71,73,75,77,79,81,83,85,87,89,91,93,95,97,99,101,103,105,107,109,111,113,115,117,119,121,123,125,-1,-1,-1,-1,-1,-1,-1,-1,-1,-1,-1,-1,-1,-1,-1,-1,-1,-1,-1,-1,-1,-1,-1,-1,-1,-1,-1,-1,-1,-1,-1,-1,-1,-1,-1,-1,-1,-1,-1,-1,-1,-1,-1,-1,-1,-1,-1,-1,-1,-1,-1,-1,-1,-1,-1,-1,-1,-1,-1,-1,-1,-1,-1,-1],"loss_changes":[1.741462E10,1.9257093E9,3.816746E9,3.1031194E8,1.1478093E9,1.3723959E9,1.7351567E9,7.110502E7,1.7660186E8,8.89737E7,5.4697894E8,1.0820152E8,6.841042E8,7.499478E7,5.1629056E8,9.957888E6,3.4932736E7,1.0390152E8,3.3884416E7,1.909952E7,3.596163E7,9.148013E7,9.3517816E7,5.7580664E7,2.2843264E7,6.437782E8,1.9581107E8,1.6018063E7,1.2001424E7,1.043625E8,8.577229E7,5.20256E5,2.061312E6,3.856018E7,8.42752E6,1.7100144E7,3.100848E7,8.509184E6,1.2350464E7,5.20928E6,4.4596416E7,7.463744E6,3.73816E7,3.2663072E7,1.5699904E7,2.0209976E7,1.2058384E7,9.13384E6,3.0047076E7,2.8789518E6,6.307592E6,1.0483445E8,6.820019E7,1.164777E8,2.0507168E7,4.630374E6,8.009964E6,2.297696E6,5.066416E6,2.9778432E7,1.7718528E7,1.648E7,1.5872256E7,0E0,0E0,0E0,0E0,0E0,0E0,0E0,0E0,0E0,0E0,0E0,0E0,0E0,0E0,0E0,0E0,0E0,0E0,0E0,0E0,0E0,0E0,0E0,0E0,0E0,0E0,0E0,0E0,0E0,0E0,0E0,0E0,0E0,0E0,0E0,0E0,0E0,0E0,0E0,0E0,0E0,0E0,0E0,0E0,0E0,0E0,0E0,0E0,0E0,0E0,0E0,0E0,0E0,0E0,0E0,0E0,0E0,0E0,0E0,0E0,0E0,0E0,0E0,0E0],"parents":[2147483647,0,0,1,1,2,2,3,3,4,4,5,5,6,6,7,7,8,8,9,9,10,10,11,11,12,12,13,13,14,14,15,15,16,16,17,17,18,18,19,19,20,20,21,21,22,22,23,23,24,24,25,25,26,26,27,27,28,28,29,29,30,30,31,31,32,32,33,33,34,34,35,35,36,36,37,37,38,38,39,39,40,40,41,41,42,42,43,43,44,44,45,45,46,46,47,47,48,48,49,49,50,50,51,51,52,52,53,53,54,54,55,55,56,56,57,57,58,58,59,59,60,60,61,61,62,62],"right_children":[2,4,6,8,10,12,14,16,18,20,22,24,26,28,30,32,34,36,38,40,42,44,46,48,50,52,54,56,58,60,62,64,66,68,70,72,74,76,78,80,82,84,86,88,90,92,94,96,98,100,102,104,106,108,110,112,114,116,118,120,122,124,126,-1,-1,-1,-1,-1,-1,-1,-1,-1,-1,-1,-1,-1,-1,-1,-1,-1,-1,-1,-1,-1,-1,-1,-1,-1,-1,-1,-1,-1,-1,-1,-1,-1,-1,-1,-1,-1,-1,-1,-1,-1,-1,-1,-1,-1,-1,-1,-1,-1,-1,-1,-1,-1,-1,-1,-1,-1,-1,-1,-1,-1,-1,-1,-1],"split_conditions":[1.424E3,1.118E3,2.2E3,9.32E2,1E0,-4.3388373E-1,-7.818315E-1,7.9E2,-2.5881904E-1,1.276E3,-2.5881904E-1,2.76E1,1E0,2.69E1,2.646E3,6.94E2,-2.5881904E-1,9.9375E2,1.018E3,-4.3388373E-1,-4.3388373E-1,1.2804166E3,-5E-1,1.1191666E3,1.73E3,1.85E3,-1.8369701E-16,1.57325E3,1.7100834E3,2.418E3,2.0344166E3,6E0,3.19E2,1.5327702E2,8.62E2,1E0,-4.3388373E-1,2E0,2E0,2.26E1,-2.5881904E-1,9.876667E2,-2.5881904E-1,2.1297137E2,-5E-1,1.33E3,6E0,1.1305834E3,1.808E3,1.676E3,2.36E3,1.588E3,2.02E3,1.46575E3,5.392441E2,1.2156666E3,1.3236666E3,1.5586666E3,1.4266666E3,1.5243334E3,1.6355834E3,1.8350834E3,2.912E3,-4.177984E1,-3.8253296E1,-3.582423E1,-2.2719254E1,-2.7034689E1,2.774189E0,-3.2258465E1,-2.9093475E1,-2.5460417E1,-8.328976E0,-2.298487E1,1.04530115E1,-2.3344587E1,-2.6763388E1,-1.8827137E1,-2.2605268E1,-1.9815252E1,-1.628189E1,2.2747316E0,-1.5720906E1,-1.8753141E1,-1.2648993E1,5.740519E0,-8.624601E0,6.689792E0,2.2465467E1,3.7692528E1,2.5393568E1,-3.0594468E-1,1.0346429E1,-1.5750743E1,-7.389904E0,-1.8414923E1,-1.05164795E1,-8.027049E0,-8.912843E-1,-5.9988527E0,1.8277239E0,7.0759835E0,1.4614883E1,3.3449936E-1,9.756677E0,1.8884165E1,2.6946415E1,2.6408115E1,4.941893E1,5.764044E0,2.1960732E1,-4.4328775E0,1.7022527E0,3.639363E0,1.1630817E1,3.9213796E0,1.3009872E1,1.5886551E1,2.4321882E1,1.9692495E1,3.6594704E1,2.8165268E1,4.626558E1,4.54221E1,5.6238995E1,6.2175426E1,7.175178E1],"split_indices":[15,15,15,15,8,7,7,15,6,15,6,1,8,1,15,15,6,36,15,7,7,36,5,35,15,15,6,36,36,15,36,21,0,37,15,8,7,22,22,1,6,35,6,37,6,34,21,36,34,34,34,15,15,36,37,35,35,36,35,36,36,36,15,0,0,0,0,0,0,0,0,0,0,0,0,0,0,0,0,0,0,0,0,0,0,0,0,0,0,0,0,0,0,0,0,0,0,0,0,0,0,0,0,0,0,0,0,0,0,0,0,0,0,0,0,0,0,0,0,0,0,0,0,0,0,0,0],"split_type":[0,0,0,0,0,0,0,0,0,0,0,0,0,0,0,0,0,0,0,0,0,0,0,0,0,0,0,0,0,0,0,0,0,0,0,0,0,0,0,0,0,0,0,0,0,0,0,0,0,0,0,0,0,0,0,0,0,0,0,0,0,0,0,0,0,0,0,0,0,0,0,0,0,0,0,0,0,0,0,0,0,0,0,0,0,0,0,0,0,0,0,0,0,0,0,0,0,0,0,0,0,0,0,0,0,0,0,0,0,0,0,0,0,0,0,0,0,0,0,0,0,0,0,0,0,0,0],"sum_hessian":[1.20417E5,6.3357E4,5.706E4,3.4646E4,2.8711E4,3.83E4,1.876E4,1.3659E4,2.0987E4,2.2256E4,6.455E3,1.1328E4,2.6972E4,3.716E3,1.5044E4,3.806E3,9.853E3,1.437E3,1.955E4,1.3362E4,8.894E3,2.941E3,3.514E3,9.529E3,1.799E3,2.3114E4,3.858E3,2.541E3,1.175E3,1.0807E4,4.237E3,1.43E3,2.376E3,4.68E2,9.385E3,6.61E2,7.76E2,8.827E3,1.0723E4,5.238E3,8.124E3,3.903E3,4.991E3,1.468E3,1.473E3,1.783E3,1.731E3,2.832E3,6.697E3,6.22E2,1.177E3,1.2589E4,1.0525E4,2.84E3,1.018E3,1.249E3,1.292E3,3.41E2,8.34E2,5.979E3,4.828E3,2.174E3,2.063E3,1.126E3,3.04E2,2.339E3,3.7E1,2.98E2,1.7E2,3.498E3,5.887E3,4.42E2,2.19E2,7.6E1,7E2,2.705E3,6.122E3,3.079E3,7.644E3,3.737E3,1.501E3,3.6E2,7.764E3,5.96E2,3.307E3,5.03E2,4.488E3,4.97E2,9.71E2,1.123E3,3.5E2,9.29E2,8.54E2,8.52E2,8.79E2,4.34E2,2.398E3,2.193E3,4.504E3,1.56E2,4.66E2,4.56E2,7.21E2,4.727E3,7.862E3,5.187E3,5.338E3,7.52E2,2.088E3,2.65E2,7.53E2,5.44E2,7.05E2,7.55E2,5.37E2,9.9E1,2.42E2,2.74E2,5.6E2,2.77E2,5.702E3,1.45E2,4.683E3,4.84E2,1.69E3,7.71E2,1.292E3],"tree_param":{"num_deleted":"0","num_feature":"39","num_nodes":"127","size_leaf_vector":"1"}},{"base_weights":[-5.5972296E-1,-3.1598483E2,4.136637E2,-4.6986343E2,-1.0572773E2,2.3295465E2,7.3462866E2,-5.7149414E2,-3.7352783E2,1.5299585E2,-1.941461E2,3.4733136E2,-4.76612E1,8.7683435E2,1.6393448E2,-6.859777E2,-5.254799E2,-3.1502804E1,-4.044702E2,-1.3476341E2,5.8180383E2,-2.3937143E2,-5.0336693E1,3.2386673E2,8.649553E2,-1.719531E2,4.260374E1,7.67598E2,1.1559385E3,3.2073425E1,3.5236002E2,-7.653856E2,-6.449691E2,-2.541355E2,-5.391672E2,-3.2533905E2,2.564869E2,-4.40844E2,-3.6570877E2,1.0891689E2,-2.9432425E2,6.3444086E2,-6.811032E1,-2.834236E2,-1.7276945E2,3.163951E2,-1.091182E2,2.3611655E2,4.5270157E2,9.957922E2,5.3670123E2,-2.7228265E2,-1.2573809E2,-1.6711822E0,2.251936E2,6.842957E2,8.692995E2,9.99959E2,1.2739872E3,-7.656528E1,8.425106E1,2.5222443E2,4.422817E2,-3.256195E1,-3.868497E1,-3.235443E1,-2.7449247E-1,-2.2068125E1,3.7285316E0,-2.8639236E1,-2.5568686E1,-8.399631E0,-2.4501143E1,-2.2458756E0,1.6273464E1,-2.2503447E1,-1.7314953E1,-1.8920486E1,-1.3051635E1,-4.2160583E0,1.4355232E1,-2.023017E1,-1.1814842E1,2.4532104E1,3.598304E1,-4.958384E0,1.0245748E1,-7.587944E0,-1.4775787E1,-6.3263884E0,-1.1498012E1,2.6434652E1,1.1813752E1,-2.5118336E-1,-8.0493965E0,2.031321E1,8.516551E0,1.0730662E1,2.3603937E1,2.5201498E1,5.60412E1,3.107132E1,1.2570868E1,-1.5560471E1,-1.1210847E1,-7.8667636E0,-4.60745E0,-4.312658E0,2.7170956E0,6.347976E0,1.4135874E1,1.973061E1,3.4929348E1,2.49775E1,4.3953E1,1.8723776E1,5.0565002E1,5.8606037E1,6.731472E1,-6.6580863E0,-1.5519117E0,2.8917444E0,8.090232E0,1.4462318E1,7.6674776E0,2.5268604E1,1.7754684E1],"categories":[],"categories_nodes":[],"categories_segments":[],"categories_sizes":[],"default_left":[0,0,0,0,0,0,0,0,0,0,0,0,0,0,0,0,0,0,0,0,0,0,0,0,0,0,0,0,0,0,0,0,0,0,0,0,0,0,0,0,0,0,0,0,0,0,0,0,0,0,0,0,0,0,0,0,0,0,0,0,0,0,0,0,0,0,0,0,0,0,0,0,0,0,0,0,0,0,0,0,0,0,0,0,0,0,0,0,0,0,0,0,0,0,0,0,0,0,0,0,0,0,0,0,0,0,0,0,0,0,0,0,0,0,0,0,0,0,0,0,0,0,0,0,0,0,0],"id":2,"left_children":[1,3,5,7,9,11,13,15,17,19,21,23,25,27,29,31,33,35,37,39,41,43,45,47,49,51,53,55,57,59,61,63,65,67,69,71,73,75,77,79,81,83,85,87,89,91,93,95,97,99,101,103,105,107,109,111,113,115,117,119,121,123,125,-1,-1,-1,-1,-1,-1,-1,-1,-1,-1,-1,-1,-1,-1,-1,-1,-1,-1,-1,-1,-1,-1,-1,-1,-1,-1,-1,-1,-1,-1,-1,-1,-1,-1,-1,-1,-1,-1,-1,-1,-1,-1,-1,-1,-1,-1,-1,-1,-1,-1,-1,-1,-1,-1,-1,-1,-1,-1,-1,-1,-1,-1,-1,-1],"loss_changes":[1.5710003E10,2.2084393E9,3.0146765E9,3.8567424E8,6.599314E8,1.0674305E9,1.5193405E9,1.0066688E8,2.141568E8,9.067736E8,1.3982016E8,2.866898E8,1.0805943E8,4.5607117E8,9.281333E7,1.740032E7,5.0685184E7,1.422481E8,2.6003712E7,1.7103434E8,1.0099558E8,4.793901E7,1.1094554E8,2.5543782E8,4.344403E7,1.87538E7,4.5109944E7,9.069005E7,7.631923E7,1.2471506E7,1.3737168E7,1.266944E6,4.916352E6,4.058952E7,1.1877888E7,2.14768E7,1.7666676E7,8.189952E6,1.1853312E7,5.9971464E7,1.691352E7,3.3101824E7,1.9027574E6,1.562624E7,1.7197792E7,1.1968712E7,2.3945328E7,1.5045766E8,4.2144256E7,4.438131E7,6.949944E6,2.319536E6,2.931728E6,2.1286422E7,6.117832E6,2.4265984E7,1.7057024E7,1.2531712E7,1.6062976E7,1.8356088E6,3.034964E6,2.62784E6,4.270624E6,0E0,0E0,0E0,0E0,0E0,0E0,0E0,0E0,0E0,0E0,0E0,0E0,0E0,0E0,0E0,0E0,0E0,0E0,0E0,0E0,0E0,0E0,0E0,0E0,0E0,0E0,0E0,0E0,0E0,0E0,0E0,0E0,0E0,0E0,0E0,0E0,0E0,0E0,0E0,0E0,0E0,0E0,0E0,0E0,0E0,0E0,0E0,0E0,0E0,0E0,0E0,0E0,0E0,0E0,0E0,0E0,0E0,0E0,0E0,0E0,0E0,0E0,0E0,0E0],"parents":[2147483647,0,0,1,1,2,2,3,3,4,4,5,5,6,6,7,7,8,8,9,9,10,10,11,11,12,12,13,13,14,14,15,15,16,16,17,17,18,18,19,19,20,20,21,21,22,22,23,23,24,24,25,25,26,26,27,27,28,28,29,29,30,30,31,31,32,32,33,33,34,34,35,35,36,36,37,37,38,38,39,39,40,40,41,41,42,42,43,43,44,44,45,45,46,46,47,47,48,48,49,49,50,50,51,51,52,52,53,53,54,54,55,55,56,56,57,57,58,58,59,59,60,60,61,61,62,62],"right_children":[2,4,6,8,10,12,14,16,18,20,22,24,26,28,30,32,34,36,38,40,42,44,46,48,50,52,54,56,58,60,62,64,66,68,70,72,74,76,78,80,82,84,86,88,90,92,94,96,98,100,102,104,106,108,110,112,114,116,118,120,122,124,126,-1,-1,-1,-1,-1,-1,-1,-1,-1,-1,-1,-1,-1,-1,-1,-1,-1,-1,-1,-1,-1,-1,-1,-1,-1,-1,-1,-1,-1,-1,-1,-1,-1,-1,-1,-1,-1,-1,-1,-1,-1,-1,-1,-1,-1,-1,-1,-1,-1,-1,-1,-1,-1,-1,-1,-1,-1,-1,-1,-1,-1,-1,-1,-1],"split_conditions":[1.494E3,1.158E3,2.2E3,9.84E2,-2.5881904E-1,1E0,1E0,8.3E2,-2.5881904E-1,1.251901E3,2.16E3,2.97E1,1.3405787E3,2.646E3,1.5941929E3,7.22E2,-2.5881904E-1,1.0304213E3,1.074E3,1E0,1E0,1.296E3,-8.660254E-1,1.89E3,-2.5881904E-1,1.2020979E3,2.86E1,2.418E3,2.00025E3,1.4161754E3,1.7290392E3,-1.8369701E-16,5.98E2,1.7387383E2,9.14E2,1E0,1.7829367E2,1.902E3,2.02E3,1.1322155E3,1.0563551E3,1.3349166E3,1.4057881E3,-8.660254E-1,1E0,-1.8369701E-16,-5E-1,-5E-1,1.4040834E3,2.003E3,-8.660254E-1,1.1535587E3,1.2785189E3,1.922E3,1.83E3,1.5243334E3,1.6288334E3,1.7025E3,2.912E3,1.3510142E3,2.49E1,-5E-1,-5E-1,-3.256195E1,-3.868497E1,-3.235443E1,-2.7449247E-1,-2.2068125E1,3.7285316E0,-2.8639236E1,-2.5568686E1,-8.399631E0,-2.4501143E1,-2.2458756E0,1.6273464E1,-2.2503447E1,-1.7314953E1,-1.8920486E1,-1.3051635E1,-4.2160583E0,1.4355232E1,-2.023017E1,-1.1814842E1,2.4532104E1,3.598304E1,-4.958384E0,1.0245748E1,-7.587944E0,-1.4775787E1,-6.3263884E0,-1.1498012E1,2.6434652E1,1.1813752E1,-2.5118336E-1,-8.0493965E0,2.031321E1,8.516551E0,1.0730662E1,2.3603937E1,2.5201498E1,5.60412E1,3.107132E1,1.2570868E1,-1.5560471E1,-1.1210847E1,-7.8667636E0,-4.60745E0,-4.312658E0,2.7170956E0,6.347976E0,1.4135874E1,1.973061E1,3.4929348E1,2.49775E1,4.3953E1,1.8723776E1,5.0565002E1,5.8606037E1,6.731472E1,-6.6580863E0,-1.5519117E0,2.8917444E0,8.090232E0,1.4462318E1,7.6674776E0,2.5268604E1,1.7754684E1],"split_indices":[15,15,15,15,6,24,24,15,6,16,32,1,16,15,16,15,6,16,15,24,24,15,5,15,6,16,1,15,36,16,16,6,0,37,15,24,37,32,32,16,16,36,16,5,24,6,5,6,36,18,5,16,16,34,15,36,36,36,15,16,1,6,6,0,0,0,0,0,0,0,0,0,0,0,0,0,0,0,0,0,0,0,0,0,0,0,0,0,0,0,0,0,0,0,0,0,0,0,0,0,0,0,0,0,0,0,0,0,0,0,0,0,0,0,0,0,0,0,0,0,0,0,0,0,0,0,0],"split_type":[0,0,0,0,0,0,0,0,0,0,0,0,0,0,0,0,0,0,0,0,0,0,0,0,0,0,0,0,0,0,0,0,0,0,0,0,0,0,0,0,0,0,0,0,0,0,0,0,0,0,0,0,0,0,0,0,0,0,0,0,0,0,0,0,0,0,0,0,0,0,0,0,0,0,0,0,0,0,0,0,0,0,0,0,0,0,0,0,0,0,0,0,0,0,0,0,0,0,0,0,0,0,0,0,0,0,0,0,0,0,0,0,0,0,0,0,0,0,0,0,0,0,0,0,0,0,0],"sum_hessian":[1.20237E5,6.8259E4,5.1978E4,3.9413E4,2.8846E4,3.3256E4,1.8722E4,1.9177E4,2.0236E4,7.347E3,2.1499E4,2.3626E4,9.63E3,1.4987E4,3.735E3,5.494E3,1.3683E4,1.679E3,1.8557E4,4.397E3,2.95E3,1.6355E4,5.144E3,2.2603E4,1.023E3,4.051E3,5.579E3,1.0774E4,4.213E3,2.198E3,1.537E3,1.865E3,3.629E3,6.58E2,1.3025E4,8.31E2,8.48E2,9.568E3,8.989E3,1.74E3,2.657E3,2.729E3,2.21E2,9.842E3,6.513E3,7.1E2,4.434E3,1.3447E4,9.156E3,7.3E2,2.93E2,1.276E3,2.775E3,4.491E3,1.088E3,5.927E3,4.847E3,1.819E3,2.394E3,7.13E2,1.485E3,7.29E2,8.08E2,1.32E2,1.733E3,3.617E3,1.2E1,4.19E2,2.39E2,5.886E3,7.139E3,4.26E2,4.05E2,1.58E2,6.9E2,8.714E3,8.54E2,8.014E3,9.75E2,8.35E2,9.05E2,9.14E2,1.743E3,1.018E3,1.711E3,1.99E2,2.2E1,8.29E2,9.013E3,3.603E3,2.91E3,1.93E2,5.17E2,1.475E3,2.959E3,3.748E3,9.699E3,6.9E2,8.466E3,1.49E2,5.81E2,2.25E2,6.8E1,7.02E2,5.74E2,1.428E3,1.347E3,1.789E3,2.702E3,4.03E2,6.85E2,2.8E2,5.647E3,1.26E2,4.721E3,3.3E1,1.786E3,1.001E3,1.393E3,3.17E2,3.96E2,1.109E3,3.76E2,5.29E2,2E2,4.66E2,3.42E2],"tree_param":{"num_deleted":"0","num_feature":"39","num_nodes":"127","size_leaf_vector":"1"}},{"base_weights":[1.8702124E-1,-3.089619E2,3.8458438E2,-4.644049E2,-1.2962831E2,2.1467438E2,6.979886E2,-5.825368E2,-3.9989694E2,-2.3095528E2,2.239736E2,-5.2741394E1,3.2487415E2,1.4487059E2,8.3300824E2,-6.732272E2,-5.369433E2,-4.3339014E2,-2.6275525E2,-2.87645E2,-1.5324736E2,-6.186716E1,3.9873557E2,-1.5866135E2,3.8151302E1,2.697064E2,7.114283E2,3.426692E1,3.2518854E2,7.208322E2,1.0851768E3,-7.399989E2,-6.3906067E2,-5.550976E2,-4.454466E2,-4.676475E2,-3.8360736E2,-4.0937222E2,-7.709482E1,-3.3284763E2,-2.581895E2,-2.2358688E2,-9.775909E1,-2.5380208E2,4.929049E1,4.8017535E2,1.3605833E2,-2.5711737E2,-1.16413086E2,-5.6928078E1,1.238555E2,1.3086562E2,4.1452997E2,8.154746E2,3.8975238E2,-5.887189E1,8.8886314E1,2.307366E2,3.9743378E2,6.359125E2,8.057277E2,9.4550665E2,1.2050107E3,-3.7186123E1,-2.8591553E1,-3.0051874E1,-3.296908E1,-2.9080755E1,-2.6658365E1,-1.4360408E1,-2.5621805E1,-2.4386585E1,-2.1948584E1,-2.0893736E1,-1.817514E1,-2.2214445E1,-1.5154039E1,5.965792E0,-1.2611453E1,-1.7684872E1,-1.4502892E1,-1.4700215E1,-1.0766385E1,-1.7430286E1,-1.022421E1,-5.5742097E0,1.5223086E1,-1.4731193E1,-7.387714E0,1.3123382E1,-3.7173195E0,-6.3521214E0,2.6307743E1,-2.0467412E0,9.209927E0,-1.5569659E1,-1.0938988E1,-7.80639E0,-3.8888314E0,-5.741787E0,-5.713512E-1,1.8285773E0,1.0459264E1,2.2063663E0,9.509008E0,1.6865292E1,2.4483063E1,2.3177237E1,4.6139843E1,1.2929387E1,2.5149046E1,-7.1458697E0,-1.4371028E0,3.2221608E0,8.002392E0,9.039306E0,1.4428809E1,1.6597788E1,2.3128437E1,1.813474E1,3.253531E1,3.253526E1,4.1421314E1,2.8783554E1,4.8059517E1,5.526956E1,6.405482E1],"categories":[],"categories_nodes":[],"categories_segments":[],"categories_sizes":[],"default_left":[0,0,0,0,0,0,0,0,0,0,0,0,0,0,0,0,0,0,0,0,0,0,0,0,0,0,0,0,0,0,0,0,0,0,0,0,0,0,0,0,0,0,0,0,0,0,0,0,0,0,0,0,0,0,0,0,0,0,0,0,0,0,0,0,0,0,0,0,0,0,0,0,0,0,0,0,0,0,0,0,0,0,0,0,0,0,0,0,0,0,0,0,0,0,0,0,0,0,0,0,0,0,0,0,0,0,0,0,0,0,0,0,0,0,0,0,0,0,0,0,0,0,0,0,0,0,0],"id":3,"left_children":[1,3,5,7,9,11,13,15,17,19,21,23,25,27,29,31,33,35,37,39,41,43,45,47,49,51,53,55,57,59,61,63,65,67,69,71,73,75,77,79,81,83,85,87,89,91,93,95,97,99,101,103,105,107,109,111,113,115,117,119,121,123,125,-1,-1,-1,-1,-1,-1,-1,-1,-1,-1,-1,-1,-1,-1,-1,-1,-1,-1,-1,-1,-1,-1,-1,-1,-1,-1,-1,-1,-1,-1,-1,-1,-1,-1,-1,-1,-1,-1,-1,-1,-1,-1,-1,-1,-1,-1,-1,-1,-1,-1,-1,-1,-1,-1,-1,-1,-1,-1,-1,-1,-1,-1,-1,-1],"loss_changes":[1.4249629E10,1.852589E9,2.8460892E9,2.7106253E8,1.1057472E9,1.0214474E9,1.4031503E9,5.16224E7,1.0567014E8,1.0562445E8,3.4340912E8,9.739633E7,5.2325965E8,7.354167E7,4.2643968E8,9.113344E6,1.36576E7,3.1384576E7,1.2308886E8,1.8378752E7,3.947669E7,5.5675616E7,9.11945E7,1.9403696E7,4.4376732E7,4.3189325E8,1.0226496E8,1.1639626E7,9.475136E6,7.486771E7,7.665562E7,4.61376E5,1.757056E6,3.749376E6,1.4597856E7,6.097664E6,5.049472E6,9.243936E6,6.872336E7,4.775744E6,1.2832896E7,1.0584832E7,3.12746E7,4.099376E6,4.35869E7,9.097299E7,8.62175E6,2.84916E6,5.006996E6,6.8018965E6,2.1323196E7,5.642539E7,6.0836736E7,8.700979E7,1.1023472E7,2.1381985E6,2.497912E6,1.71019E6,3.22852E6,2.0911104E7,1.7846784E7,1.19232E7,1.751808E7,0E0,0E0,0E0,0E0,0E0,0E0,0E0,0E0,0E0,0E0,0E0,0E0,0E0,0E0,0E0,0E0,0E0,0E0,0E0,0E0,0E0,0E0,0E0,0E0,0E0,0E0,0E0,0E0,0E0,0E0,0E0,0E0,0E0,0E0,0E0,0E0,0E0,0E0,0E0,0E0,0E0,0E0,0E0,0E0,0E0,0E0,0E0,0E0,0E0,0E0,0E0,0E0,0E0,0E0,0E0,0E0,0E0,0E0,0E0,0E0,0E0,0E0,0E0,0E0],"parents":[2147483647,0,0,1,1,2,2,3,3,4,4,5,5,6,6,7,7,8,8,9,9,10,10,11,11,12,12,13,13,14,14,15,15,16,16,17,17,18,18,19,19,20,20,21,21,22,22,23,23,24,24,25,25,26,26,27,27,28,28,29,29,30,30,31,31,32,32,33,33,34,34,35,35,36,36,37,37,38,38,39,39,40,40,41,41,42,42,43,43,44,44,45,45,46,46,47,47,48,48,49,49,50,50,51,51,52,52,53,53,54,54,55,55,56,56,57,57,58,58,59,59,60,60,61,61,62,62],"right_children":[2,4,6,8,10,12,14,16,18,20,22,24,26,28,30,32,34,36,38,40,42,44,46,48,50,52,54,56,58,60,62,64,66,68,70,72,74,76,78,80,82,84,86,88,90,92,94,96,98,100,102,104,106,108,110,112,114,116,118,120,122,124,126,-1,-1,-1,-1,-1,-1,-1,-1,-1,-1,-1,-1,-1,-1,-1,-1,-1,-1,-1,-1,-1,-1,-1,-1,-1,-1,-1,-1,-1,-1,-1,-1,-1,-1,-1,-1,-1,-1,-1,-1,-1,-1,-1,-1,-1,-1,-1,-1,-1,-1,-1,-1,-1,-1,-1,-1,-1,-1,-1,-1,-1,-1,-1,-1],"split_conditions":[1.472E3,1.126E3,2.2E3,9.22E2,1E0,-4.3388373E-1,-7.818315E-1,8E2,1E0,1.296E3,1.308E3,1.3547515E3,1E0,1.6048315E3,2.624E3,6.94E2,8E0,1.046E3,8E0,-4.3388373E-1,-4.3388373E-1,8E0,1.8E1,1.2020979E3,2.032E3,1.85E3,1.8E1,1.4331785E3,1.7204678E3,2.388E3,2.00025E3,1.562E3,2E0,8.7E2,1.8E1,9.96E2,-4.3388373E-1,6E0,1.8E1,2.2E1,1.21E3,1.0874514E3,1.72E3,6E0,1.8E1,8E0,4.8324384E2,1.1322155E3,-7.818315E-1,1.73E3,1.4896687E3,1.632E3,2.02E3,1.4992166E3,2.624E3,1.3266543E3,2.5E1,2.72E1,1.86525E3,1.5243334E3,1.696E3,5.631164E2,2.912E3,-3.7186123E1,-2.8591553E1,-3.0051874E1,-3.296908E1,-2.9080755E1,-2.6658365E1,-1.4360408E1,-2.5621805E1,-2.4386585E1,-2.1948584E1,-2.0893736E1,-1.817514E1,-2.2214445E1,-1.5154039E1,5.965792E0,-1.2611453E1,-1.7684872E1,-1.4502892E1,-1.4700215E1,-1.0766385E1,-1.7430286E1,-1.022421E1,-5.5742097E0,1.5223086E1,-1.4731193E1,-7.387714E0,1.3123382E1,-3.7173195E0,-6.3521214E0,2.6307743E1,-2.0467412E0,9.209927E0,-1.5569659E1,-1.0938988E1,-7.80639E0,-3.8888314E0,-5.741787E0,-5.713512E-1,1.8285773E0,1.0459264E1,2.2063663E0,9.509008E0,1.6865292E1,2.4483063E1,2.3177237E1,4.6139843E1,1.2929387E1,2.5149046E1,-7.1458697E0,-1.4371028E0,3.2221608E0,8.002392E0,9.039306E0,1.4428809E1,1.6597788E1,2.3128437E1,1.813474E1,3.253531E1,3.253526E1,4.1421314E1,2.8783554E1,4.8059517E1,5.526956E1,6.405482E1],"split_indices":[15,15,15,15,8,7,7,15,8,15,34,16,8,16,15,15,21,15,21,7,7,21,21,16,34,15,21,16,16,15,36,32,22,15,21,15,7,21,21,1,15,16,34,21,21,21,37,16,7,34,16,15,15,16,32,16,1,1,36,36,36,37,15,0,0,0,0,0,0,0,0,0,0,0,0,0,0,0,0,0,0,0,0,0,0,0,0,0,0,0,0,0,0,0,0,0,0,0,0,0,0,0,0,0,0,0,0,0,0,0,0,0,0,0,0,0,0,0,0,0,0,0,0,0,0,0,0],"split_type":[0,0,0,0,0,0,0,0,0,0,0,0,0,0,0,0,0,0,0,0,0,0,0,0,0,0,0,0,0,0,0,0,0,0,0,0,0,0,0,0,0,0,0,0,0,0,0,0,0,0,0,0,0,0,0,0,0,0,0,0,0,0,0,0,0,0,0,0,0,0,0,0,0,0,0,0,0,0,0,0,0,0,0,0,0,0,0,0,0,0,0,0,0,0,0,0,0,0,0,0,0,0,0,0,0,0,0,0,0,0,0,0,0,0,0,0,0,0,0,0,0,0,0,0,0,0,0],"sum_hessian":[1.19908E5,6.6459E4,5.3449E4,3.56E4,3.0859E4,3.466E4,1.8789E4,1.2571E4,2.3029E4,2.3986E4,6.873E3,1.0115E4,2.4545E4,3.687E3,1.5102E4,4.201E3,8.37E3,1.8507E4,4.522E3,1.3867E4,1.0119E4,2.608E3,4.265E3,4.671E3,5.444E3,2.1481E4,3.064E3,2.286E3,1.401E3,1.0455E4,4.647E3,1.415E3,2.786E3,6.98E3,1.39E3,1.0958E4,7.549E3,2.526E3,1.996E3,5.467E3,8.4E3,4.461E3,5.658E3,9.56E2,1.652E3,3.255E3,1.01E3,1.401E3,3.27E3,2.581E3,2.863E3,1.0968E4,1.0513E4,2.314E3,7.5E2,8.45E2,1.441E3,6.09E2,7.92E2,5.231E3,5.224E3,2.15E3,2.497E3,1.381E3,3.4E1,9.81E2,1.805E3,3.148E3,3.832E3,4.15E2,9.75E2,6.435E3,4.523E3,2.784E3,4.765E3,1.899E3,6.27E2,9.41E2,1.055E3,3.671E3,1.796E3,4.573E3,3.827E3,5.89E2,3.872E3,5.472E3,1.86E2,6.89E2,2.67E2,6.06E2,1.046E3,2.29E2,3.026E3,2.16E2,7.94E2,5.77E2,8.24E2,1.611E3,1.659E3,1.135E3,1.446E3,1.416E3,1.447E3,4.455E3,6.513E3,5.187E3,5.326E3,5.42E2,1.772E3,3.49E2,4.01E2,2.22E2,6.23E2,1.074E3,3.67E2,3.29E2,2.8E2,3.98E2,3.94E2,2.7E2,4.961E3,6.71E2,4.553E3,8.9E1,2.061E3,1.088E3,1.409E3],"tree_param":{"num_deleted":"0","num_feature":"39","num_nodes":"127","size_leaf_vector":"1"}},{"base_weights":[-5.4165274E-1,-2.8900186E2,3.7024567E2,-4.251021E2,-9.914554E1,2.1501373E2,6.72017E2,-5.3090936E2,-3.4939566E2,-2.0175253E2,2.5129677E2,-4.389676E1,3.1983432E2,1.416065E2,8.023444E2,-6.3139246E2,-4.904099E2,-3.8625206E1,-3.759612E2,-2.5395111E2,-1.3307387E2,4.9335132E2,1.1948917E1,-1.4788972E2,4.171462E1,2.7027164E2,6.890981E2,4.086197E1,3.2289822E2,7.192524E2,1.1024259E3,-6.915339E2,-5.9174524E2,-2.4223425E2,-5.022939E2,-2.9983868E2,2.405442E2,-4.1857538E2,-3.4032617E2,-2.9966193E2,-2.2329745E2,-2.0258356E2,-7.787962E1,2.0221259E2,5.984986E2,1.2998805E2,-1.5813322E2,-2.2649721E2,-9.777442E1,-1.7093933E1,1.6161932E2,1.4316199E2,4.2001254E2,8.2874634E2,4.3213803E2,-2.7246376E1,1.14561584E2,2.749413E2,4.6276257E2,6.399998E2,8.225365E2,9.732582E2,1.1956235E3,-3.6012245E1,-3.3141018E1,-2.9736698E1,-1.34750185E1,-2.1333124E1,4.980267E0,-2.55222E1,-2.0142004E1,-5.5673437E0,-2.1349468E1,1.4315778E1,-6.4761024E0,-1.8529488E1,-2.1938047E1,-1.7799534E1,-1.2772906E1,-1.9182135E1,-1.4404201E1,5.817082E0,-1.1818381E1,-1.6113604E1,-9.123921E0,1.0217631E1,-5.073508E0,-7.678062E0,1.556633E1,2.305856E1,3.5015182E1,-1.8996216E0,9.389584E0,-1.1035796E1,-3.4342601E0,-1.3819489E1,-9.499694E0,-6.7139945E0,-3.0952713E0,-4.569568E0,1.3482674E0,3.644818E0,1.3698112E1,3.3927486E0,1.0551346E1,1.7842728E1,2.465896E1,2.3018192E1,4.7866947E1,7.751392E0,2.6096878E1,-5.3404527E0,4.6370092E-1,4.5829725E0,8.896995E0,1.02343445E1,1.5999184E1,1.847824E1,2.7040369E1,2.0147669E1,3.29574E1,2.1442198E1,4.16916E1,4.09008E1,5.051291E1,5.721405E1,6.3672585E1],"categories":[],"categories_nodes":[],"categories_segments":[],"categories_sizes":[],"default_left":[0,0,0,0,0,0,0,0,0,0,0,0,0,0,0,0,0,0,0,0,0,0,0,0,0,0,0,0,0,0,0,0,0,0,0,0,0,0,0,0,0,0,0,0,0,0,0,0,0,0,0,0,0,0,0,0,0,0,0,0,0,0,0,0,0,0,0,0,0,0,0,0,0,0,0,0,0,0,0,0,0,0,0,0,0,0,0,0,0,0,0,0,0,0,0,0,0,0,0,0,0,0,0,0,0,0,0,0,0,0,0,0,0,0,0,0,0,0,0,0,0,0,0,0,0,0,0],"id":4,"left_children":[1,3,5,7,9,11,13,15,17,19,21,23,25,27,29,31,33,35,37,39,41,43,45,47,49,51,53,55,57,59,61,63,65,67,69,71,73,75,77,79,81,83,85,87,89,91,93,95,97,99,101,103,105,107,109,111,113,115,117,119,121,123,125,-1,-1,-1,-1,-1,-1,-1,-1,-1,-1,-1,-1,-1,-1,-1,-1,-1,-1,-1,-1,-1,-1,-1,-1,-1,-1,-1,-1,-1,-1,-1,-1,-1,-1,-1,-1,-1,-1,-1,-1,-1,-1,-1,-1,-1,-1,-1,-1,-1,-1,-1,-1,-1,-1,-1,-1,-1,-1,-1,-1,-1,-1,-1,-1],"loss_changes":[1.2856601E10,1.7468877E9,2.4636918E9,3.1524403E8,1.01514035E9,9.426111E8,1.23484E9,6.651955E7,1.8951347E8,7.825024E7,3.704321E8,8.912501E7,4.5228646E8,6.4367936E7,3.567913E8,1.0830976E7,3.4411776E7,1.3198948E8,3.1973632E7,1.7316416E7,3.6170416E7,9.71959E7,6.4586096E7,1.7784112E7,3.872213E7,4.148516E8,1.0460275E8,1.1382461E7,8.317456E6,9.142938E7,3.625088E7,1.061824E6,2.582656E6,3.389759E7,8.850944E6,2.2361472E7,1.4858216E7,9.16224E6,1.5228032E7,4.728736E6,3.3010336E7,9.985312E6,3.503519E7,3.2850636E7,3.2321792E7,1.8446198E7,7.362868E6,3.151056E6,3.60829E6,1.2065281E7,1.7991112E7,6.025112E7,4.607155E7,8.928038E7,2.5599744E7,3.4267642E6,1.56437E6,2.909072E6,2.127688E6,2.8607232E7,2.1316864E7,6.68672E6,5.739264E6,0E0,0E0,0E0,0E0,0E0,0E0,0E0,0E0,0E0,0E0,0E0,0E0,0E0,0E0,0E0,0E0,0E0,0E0,0E0,0E0,0E0,0E0,0E0,0E0,0E0,0E0,0E0,0E0,0E0,0E0,0E0,0E0,0E0,0E0,0E0,0E0,0E0,0E0,0E0,0E0,0E0,0E0,0E0,0E0,0E0,0E0,0E0,0E0,0E0,0E0,0E0,0E0,0E0,0E0,0E0,0E0,0E0,0E0,0E0,0E0,0E0,0E0,0E0,0E0],"parents":[2147483647,0,0,1,1,2,2,3,3,4,4,5,5,6,6,7,7,8,8,9,9,10,10,11,11,12,12,13,13,14,14,15,15,16,16,17,17,18,18,19,19,20,20,21,21,22,22,23,23,24,24,25,25,26,26,27,27,28,28,29,29,30,30,31,31,32,32,33,33,34,34,35,35,36,36,37,37,38,38,39,39,40,40,41,41,42,42,43,43,44,44,45,45,46,46,47,47,48,48,49,49,50,50,51,51,52,52,53,53,54,54,55,55,56,56,57,57,58,58,59,59,60,60,61,61,62,62],"right_children":[2,4,6,8,10,12,14,16,18,20,22,24,26,28,30,32,34,36,38,40,42,44,46,48,50,52,54,56,58,60,62,64,66,68,70,72,74,76,78,80,82,84,86,88,90,92,94,96,98,100,102,104,106,108,110,112,114,116,118,120,122,124,126,-1,-1,-1,-1,-1,-1,-1,-1,-1,-1,-1,-1,-1,-1,-1,-1,-1,-1,-1,-1,-1,-1,-1,-1,-1,-1,-1,-1,-1,-1,-1,-1,-1,-1,-1,-1,-1,-1,-1,-1,-1,-1,-1,-1,-1,-1,-1,-1,-1,-1,-1,-1,-1,-1,-1,-1,-1,-1,-1,-1,-1,-1,-1,-1],"split_conditions":[1.486E3,1.158E3,2.226E3,9.58E2,1E0,-4.3388373E-1,-7.818315E-1,8.12E2,-2.5881904E-1,1.318E3,-2.5881904E-1,1.3547515E3,1E0,1.6236351E3,2.728E3,7.22E2,-2.5881904E-1,1.0304213E3,1.05E3,-4.3388373E-1,-4.3388373E-1,2.4280247E2,-5E-1,1.2275974E3,2.278E3,1.89E3,-2.5881904E-1,1.4860255E3,1.8424873E3,2.464E3,2.0456666E3,6.6E2,4.44E2,1.7600757E2,1.694E3,2E0,3E0,2E0,1E0,1.0392656E3,-5E-1,1.101279E3,-5E-1,5E-1,1.3270834E3,4.7880695E2,1.566E2,1.1535587E3,-7.818315E-1,1.808E3,1.5158557E3,1.686E3,2.064E3,1.5031608E3,5.3255444E2,1.3718818E3,2.59E1,2.72E1,5.274615E2,4.9841446E2,1.661E3,1.8711666E3,3.04E3,-3.6012245E1,-3.3141018E1,-2.9736698E1,-1.34750185E1,-2.1333124E1,4.980267E0,-2.55222E1,-2.0142004E1,-5.5673437E0,-2.1349468E1,1.4315778E1,-6.4761024E0,-1.8529488E1,-2.1938047E1,-1.7799534E1,-1.2772906E1,-1.9182135E1,-1.4404201E1,5.817082E0,-1.1818381E1,-1.6113604E1,-9.123921E0,1.0217631E1,-5.073508E0,-7.678062E0,1.556633E1,2.305856E1,3.5015182E1,-1.8996216E0,9.389584E0,-1.1035796E1,-3.4342601E0,-1.3819489E1,-9.499694E0,-6.7139945E0,-3.0952713E0,-4.569568E0,1.3482674E0,3.644818E0,1.3698112E1,3.3927486E0,1.0551346E1,1.7842728E1,2.465896E1,2.3018192E1,4.7866947E1,7.751392E0,2.6096878E1,-5.3404527E0,4.6370092E-1,4.5829725E0,8.896995E0,1.02343445E1,1.5999184E1,1.847824E1,2.7040369E1,2.0147669E1,3.29574E1,2.1442198E1,4.16916E1,4.09008E1,5.051291E1,5.721405E1,6.3672585E1],"split_indices":[15,15,15,15,8,7,7,15,6,15,6,16,8,16,15,15,6,16,15,7,7,37,5,16,34,15,6,16,16,15,36,15,0,37,32,22,22,22,8,16,6,16,6,5,36,37,29,16,7,34,16,15,15,16,37,16,1,1,37,37,36,36,15,0,0,0,0,0,0,0,0,0,0,0,0,0,0,0,0,0,0,0,0,0,0,0,0,0,0,0,0,0,0,0,0,0,0,0,0,0,0,0,0,0,0,0,0,0,0,0,0,0,0,0,0,0,0,0,0,0,0,0,0,0,0,0,0],"split_type":[0,0,0,0,0,0,0,0,0,0,0,0,0,0,0,0,0,0,0,0,0,0,0,0,0,0,0,0,0,0,0,0,0,0,0,0,0,0,0,0,0,0,0,0,0,0,0,0,0,0,0,0,0,0,0,0,0,0,0,0,0,0,0,0,0,0,0,0,0,0,0,0,0,0,0,0,0,0,0,0,0,0,0,0,0,0,0,0,0,0,0,0,0,0,0,0,0,0,0,0,0,0,0,0,0,0,0,0,0,0,0,0,0,0,0,0,0,0,0,0,0,0,0,0,0,0,0],"sum_hessian":[1.20201E5,6.7606E4,5.2595E4,3.9377E4,2.8229E4,3.4731E4,1.7864E4,1.6421E4,2.2956E4,2.1836E4,6.393E3,1.0009E4,2.4722E4,3.524E3,1.434E4,4.713E3,1.1708E4,1.808E3,2.1148E4,1.2405E4,9.431E3,3.178E3,3.215E3,4.519E3,5.49E3,2.1798E4,2.924E3,2.266E3,1.258E3,1.1233E4,3.107E3,1.866E3,2.847E3,5.36E2,1.1172E4,9.34E2,8.74E2,9.626E3,1.1522E4,4.976E3,7.429E3,4.173E3,5.258E3,8.44E2,2.334E3,1.898E3,1.317E3,1.758E3,2.761E3,3.684E3,1.806E3,1.1791E4,1.0007E4,1.893E3,1.031E3,1.178E3,1.088E3,9.39E2,3.19E2,6.36E3,4.873E3,1.307E3,1.8E3,9.21E2,9.45E2,2.82E3,2.7E1,3.48E2,1.88E2,1.0322E4,8.5E2,3.77E2,5.57E2,7.78E2,9.6E1,2.856E3,6.77E3,9.724E3,1.798E3,5.99E2,4.377E3,2.75E2,7.154E3,5.98E2,3.575E3,4.05E2,4.853E3,1.98E2,6.46E2,9.96E2,1.338E3,4.86E2,1.412E3,7.74E2,5.43E2,7.4E2,1.018E3,1.367E3,1.394E3,1.371E3,2.313E3,1.01E3,7.96E2,5.59E3,6.201E3,5.374E3,4.633E3,4.91E2,1.402E3,2.53E2,7.78E2,3.7E2,8.08E2,8.01E2,2.87E2,3.69E2,5.7E2,1.48E2,1.71E2,4.77E2,5.883E3,1.37E2,4.736E3,2.56E2,1.051E3,1.094E3,7.06E2],"tree_param":{"num_deleted":"0","num_feature":"39","num_nodes":"127","size_leaf_vector":"1"}},{"base_weights":[-6.990417E-1,-3.2126797E2,2.5597914E2,1.3032391E2,-3.6888193E2,-8.279603E1,4.143583E2,-2.1835117E2,3.0782455E2,-4.6728806E2,-2.710374E2,-1.9003706E2,4.735644E1,5.790599E2,1.6328528E2,-4.5463602E2,-9.574079E1,1.6592715E2,4.1417996E2,-5.6429803E2,-4.2647922E2,-3.0948166E2,-1.5673184E2,-3.2676266E2,-1.4681877E2,-9.383436E1,1.4537926E2,3.3098636E2,7.771198E2,3.120324E2,2.3601532E0,-5.3736536E2,-3.4924475E2,-3.5204633E2,-5.1378056E1,-4.0889095E1,1.9346991E2,3.153505E2,5.191264E2,-6.419736E2,-5.2815155E2,-4.433474E2,-3.2565607E2,-3.6443295E2,-2.7961285E2,-6.200084E0,-2.2146082E2,-4.0083566E2,-2.7793274E2,-2.5326764E2,-1.0957174E2,2.0994911E1,-1.4582907E2,5.925482E1,2.8420724E2,1.3098546E2,4.2665155E2,6.687806E2,9.3936835E2,1.12549706E2,4.5783142E2,-5.799647E1,2.2254219E2,-2.8428162E1,-2.2238348E1,-1.984746E1,-8.167632E0,-2.3041254E1,-1.4574491E1,-1.4709345E0,-2.7331043E1,-1.0872648E1,2.7031887E0,2.0184076E0,1.1324958E1,1.862614E1,1.2214941E1,2.8052704E1,1.4633278E1,-3.4188103E1,-3.0715353E1,-2.6868689E1,-1.976719E1,-2.3048536E1,-1.9914782E1,-5.1110973E0,-1.793507E1,-2.0507948E1,-1.6218048E1,-3.9293065E0,-1.4534586E1,1.0542849E1,-2.33726E0,-1.2954825E1,-7.4070215E0,-2.462261E1,-1.8581474E1,-1.6323002E1,-1.3186988E1,-1.5059982E1,-1.1012361E1,-8.483713E0,-3.4332368E0,4.493844E0,-1.7182009E0,-6.0768336E-1,-8.666029E0,-2.0727541E0,4.9850326E0,1.0580073E1,1.7594809E1,-1.0393494E0,1.1093024E1,1.3260834E1,2.3341774E1,3.70858E1,2.7098953E1,4.1794655E1,5.5019466E1,-7.640957E-1,9.86734E0,3.1658615E1,1.8766409E1,-4.475279E0,3.2505276E0,1.3798923E1,4.022368E0],"categories":[],"categories_nodes":[],"categories_segments":[],"categories_sizes":[],"default_left":[0,0,0,0,0,0,0,0,0,0,0,0,0,0,0,0,0,0,0,0,0,0,0,0,0,0,0,0,0,0,0,0,0,0,0,0,0,0,0,0,0,0,0,0,0,0,0,0,0,0,0,0,0,0,0,0,0,0,0,0,0,0,0,0,0,0,0,0,0,0,0,0,0,0,0,0,0,0,0,0,0,0,0,0,0,0,0,0,0,0,0,0,0,0,0,0,0,0,0,0,0,0,0,0,0,0,0,0,0,0,0,0,0,0,0,0,0,0,0,0,0,0,0,0,0,0,0],"id":5,"left_children":[1,3,5,7,9,11,13,15,17,19,21,23,25,27,29,31,33,35,37,39,41,43,45,47,49,51,53,55,57,59,61,63,65,67,69,71,73,75,77,79,81,83,85,87,89,91,93,95,97,99,101,103,105,107,109,111,113,115,117,119,121,123,125,-1,-1,-1,-1,-1,-1,-1,-1,-1,-1,-1,-1,-1,-1,-1,-1,-1,-1,-1,-1,-1,-1,-1,-1,-1,-1,-1,-1,-1,-1,-1,-1,-1,-1,-1,-1,-1,-1,-1,-1,-1,-1,-1,-1,-1,-1,-1,-1,-1,-1,-1,-1,-1,-1,-1,-1,-1,-1,-1,-1,-1,-1,-1,-1],"loss_changes":[9.881537E9,1.1482593E9,3.578389E9,3.153351E8,4.6499738E8,2.9656797E8,1.8791941E9,4.9757584E7,5.0880384E7,9.510042E7,1.0640563E8,6.87865E7,1.3286303E8,1.3481114E9,4.3096378E8,4.930352E6,1.286459E7,8.256144E6,1.984352E7,1.9674112E7,2.869248E7,2.965056E7,5.9425856E7,1.000528E7,3.5073536E7,2.3491068E7,6.772859E7,2.3308134E8,2.675927E8,2.720619E8,1.1495331E8,6.91784E5,2.249672E6,9.65748E5,1.0500254E7,2.8786132E6,6.453492E6,3.954928E6,8.704096E6,2.19168E6,5.75232E6,1.13472E7,1.793464E7,1.1557248E7,2.6141568E7,1.6158962E7,1.1730736E7,2.7844E6,1.0772E6,3.564464E6,1.6116864E7,4.6819235E6,9.94962E6,1.4252518E7,1.0585328E7,5.4401536E7,5.334272E7,8.424832E7,1.0083379E8,4.284171E7,7.795213E7,2.6318906E7,1.41084E7,0E0,0E0,0E0,0E0,0E0,0E0,0E0,0E0,0E0,0E0,0E0,0E0,0E0,0E0,0E0,0E0,0E0,0E0,0E0,0E0,0E0,0E0,0E0,0E0,0E0,0E0,0E0,0E0,0E0,0E0,0E0,0E0,0E0,0E0,0E0,0E0,0E0,0E0,0E0,0E0,0E0,0E0,0E0,0E0,0E0,0E0,0E0,0E0,0E0,0E0,0E0,0E0,0E0,0E0,0E0,0E0,0E0,0E0,0E0,0E0,0E0,0E0,0E0,0E0],"parents":[2147483647,0,0,1,1,2,2,3,3,4,4,5,5,6,6,7,7,8,8,9,9,10,10,11,11,12,12,13,13,14,14,15,15,16,16,17,17,18,18,19,19,20,20,21,21,22,22,23,23,24,24,25,25,26,26,27,27,28,28,29,29,30,30,31,31,32,32,33,33,34,34,35,35,36,36,37,37,38,38,39,39,40,40,41,41,42,42,43,43,44,44,45,45,46,46,47,47,48,48,49,49,50,50,51,51,52,52,53,53,54,54,55,55,56,56,57,57,58,58,59,59,60,60,61,61,62,62],"right_children":[2,4,6,8,10,12,14,16,18,20,22,24,26,28,30,32,34,36,38,40,42,44,46,48,50,52,54,56,58,60,62,64,66,68,70,72,74,76,78,80,82,84,86,88,90,92,94,96,98,100,102,104,106,108,110,112,114,116,118,120,122,124,126,-1,-1,-1,-1,-1,-1,-1,-1,-1,-1,-1,-1,-1,-1,-1,-1,-1,-1,-1,-1,-1,-1,-1,-1,-1,-1,-1,-1,-1,-1,-1,-1,-1,-1,-1,-1,-1,-1,-1,-1,-1,-1,-1,-1,-1,-1,-1,-1,-1,-1,-1,-1,-1,-1,-1,-1,-1,-1,-1,-1,-1,-1,-1,-1],"split_conditions":[1.296E3,-2.5881904E-1,-4.3388373E-1,1.0874514E3,1.038E3,1.3930834E3,-2.5881904E-1,1.2618401E2,1.293451E3,8.62E2,1.934E3,1.120106E3,2.098E3,1.5563397E3,-8.660254E-1,8.893117E2,-4.3388373E-1,-5E-1,4.9841446E2,7.44E2,1.74E3,-4.3388373E-1,-5E-1,1.0117007E3,1.622E3,-5E-1,1.5941929E3,1.300898E3,1.8314781E3,1.8205116E3,2.648E3,4E0,8.660254E-1,9.1031244E2,3.63E2,1.177E3,1.0005E3,-7.0710677E-1,8.660254E-1,6.6E2,1.686E3,1.5551666E3,-5E-1,1.3785682E3,-8.660254E-1,6.123234E-17,2.1755E3,8.893117E2,1.596E3,1.424E3,1.2438733E3,5E-1,-5E-1,1.4127546E3,2.87E1,1.1689104E3,-2.5881904E-1,-7.0710677E-1,1.9900834E3,1.5977235E3,-1.8369701E-16,1.578E3,-5E-1,-2.8428162E1,-2.2238348E1,-1.984746E1,-8.167632E0,-2.3041254E1,-1.4574491E1,-1.4709345E0,-2.7331043E1,-1.0872648E1,2.7031887E0,2.0184076E0,1.1324958E1,1.862614E1,1.2214941E1,2.8052704E1,1.4633278E1,-3.4188103E1,-3.0715353E1,-2.6868689E1,-1.976719E1,-2.3048536E1,-1.9914782E1,-5.1110973E0,-1.793507E1,-2.0507948E1,-1.6218048E1,-3.9293065E0,-1.4534586E1,1.0542849E1,-2.33726E0,-1.2954825E1,-7.4070215E0,-2.462261E1,-1.8581474E1,-1.6323002E1,-1.3186988E1,-1.5059982E1,-1.1012361E1,-8.483713E0,-3.4332368E0,4.493844E0,-1.7182009E0,-6.0768336E-1,-8.666029E0,-2.0727541E0,4.9850326E0,1.0580073E1,1.7594809E1,-1.0393494E0,1.1093024E1,1.3260834E1,2.3341774E1,3.70858E1,2.7098953E1,4.1794655E1,5.5019466E1,-7.640957E-1,9.86734E0,3.1658615E1,1.8766409E1,-4.475279E0,3.2505276E0,1.3798923E1,4.022368E0],"split_indices":[34,6,7,16,34,36,6,37,16,34,32,16,34,16,5,16,7,5,37,34,32,7,5,16,34,5,16,16,16,16,32,23,5,16,23,35,35,6,5,34,32,36,5,16,5,6,35,16,34,34,16,6,6,16,1,16,5,6,36,16,6,34,5,0,0,0,0,0,0,0,0,0,0,0,0,0,0,0,0,0,0,0,0,0,0,0,0,0,0,0,0,0,0,0,0,0,0,0,0,0,0,0,0,0,0,0,0,0,0,0,0,0,0,0,0,0,0,0,0,0,0,0,0,0,0,0,0],"split_type":[0,0,0,0,0,0,0,0,0,0,0,0,0,0,0,0,0,0,0,0,0,0,0,0,0,0,0,0,0,0,0,0,0,0,0,0,0,0,0,0,0,0,0,0,0,0,0,0,0,0,0,0,0,0,0,0,0,0,0,0,0,0,0,0,0,0,0,0,0,0,0,0,0,0,0,0,0,0,0,0,0,0,0,0,0,0,0,0,0,0,0,0,0,0,0,0,0,0,0,0,0,0,0,0,0,0,0,0,0,0,0,0,0,0,0,0,0,0,0,0,0,0,0,0,0,0,0],"sum_hessian":[1.2009E5,5.3399E4,6.6691E4,5.093E3,4.8306E4,2.1246E4,4.5445E4,1.718E3,3.375E3,2.4082E4,2.4224E4,1.1648E4,9.598E3,2.7442E4,1.8003E4,5.86E2,1.132E3,1.447E3,1.928E3,7.127E3,1.6955E4,1.8126E4,6.098E3,2.796E3,8.852E3,3.933E3,5.665E3,1.2184E4,1.5258E4,9.355E3,8.648E3,3.26E2,2.6E2,1.66E2,9.66E2,1.7E2,1.277E3,9.95E2,9.33E2,2.258E3,4.869E3,1.4522E4,2.433E3,6.379E3,1.1747E4,1.834E3,4.264E3,1.108E3,1.688E3,2.293E3,6.559E3,1.226E3,2.707E3,3.497E3,2.168E3,3.943E3,8.241E3,9.152E3,6.106E3,3.951E3,5.404E3,6.788E3,1.86E3,2.4E2,8.6E1,2.06E2,5.4E1,5.7E1,1.09E2,9.26E2,4E1,5.9E1,1.11E2,2.27E2,1.05E3,5.49E2,4.46E2,7.86E2,1.47E2,8.9E2,1.368E3,4.55E3,3.19E2,1.0432E4,4.09E3,3.14E2,2.119E3,2.975E3,3.404E3,6.14E2,1.1133E4,2.88E2,1.546E3,2.816E3,1.448E3,2.64E2,8.44E2,3.77E2,1.311E3,9.32E2,1.361E3,2.655E3,3.904E3,5.46E2,6.8E2,4.62E2,2.245E3,1.002E3,2.495E3,1.048E3,1.12E3,1.477E3,2.466E3,1.644E3,6.597E3,5.807E3,3.345E3,3.721E3,2.385E3,1.576E3,2.375E3,1.727E3,3.677E3,5.404E3,1.384E3,1.351E3,5.09E2],"tree_param":{"num_deleted":"0","num_feature":"39","num_nodes":"127","size_leaf_vector":"1"}},{"base_weights":[7.958387E-1,-2.4743466E2,3.5076086E2,-3.8153116E2,-7.346424E1,1.7775965E1,4.6409045E2,-4.6636972E2,-3.0259802E2,-1.6822325E2,2.5545265E2,-8.334025E1,1.3758977E2,3.1883383E2,7.655873E2,-5.542265E2,-4.2599994E2,-1.9720762E1,-3.292565E2,-2.2055176E2,-9.5057335E1,4.7189075E2,3.1732594E1,-1.696025E2,-2.801925E1,7.658524E1,2.7602094E2,2.82829E2,6.63829E2,6.848389E2,9.994064E2,-6.1570496E2,-5.159719E2,-2.0284357E2,-4.3742526E2,-2.2092154E2,2.8055173E2,-3.417412E2,-2.4597575E2,-2.625091E2,-1.9173544E2,-1.6430373E2,-4.0575195E1,3.1609668E2,6.282213E2,-1.4484273E2,1.3137494E2,-2.3373164E2,-1.3444446E2,3.533921E0,-7.668425E1,-1.564468E1,1.22688835E2,2.1050658E2,3.8895868E2,1.5797229E2,4.1907303E2,7.541849E2,3.634618E2,6.163612E2,7.5206195E2,8.84526E2,1.0807938E3,-3.1957666E1,-2.8950108E1,-1.6884907E1,-2.6161207E1,-1.8437757E1,1.5908469E0,-2.2131718E1,-1.5251381E1,-1.7084578E1,-4.49669E-2,-1.079689E1,1.457811E1,-1.8258518E1,-1.5351555E1,-3.1315668E0,-1.4015292E1,-1.7480062E1,-1.2617248E1,2.060988E0,-1.0332955E1,-1.4245974E1,-7.2802825E0,1.0687065E1,-3.3391614E0,2.958E0,1.8199032E1,3.407149E1,2.295367E1,-2.6048064E0,-9.865599E0,1.5902849E1,2.426286E0,-1.1401352E1,-2.7588636E1,-7.9694953E0,-4.5777144E0,-1.4182752E0,2.6110337E0,-5.8132505E0,-1.805558E-1,1.2505939E1,-1.4035352E0,3.9374368E0,9.308088E0,6.3452473E0,1.2465203E1,1.741853E1,2.5200954E1,4.8517237E0,1.0946744E1,1.2939719E1,2.2340563E1,1.6595762E1,4.155099E1,9.154317E0,2.3341055E1,7.1344886E0,3.1161472E1,2.1049128E1,3.8052628E1,3.86916E1,4.6416176E1,5.1696205E1,5.76905E1],"categories":[],"categories_nodes":[],"categories_segments":[],"categories_sizes":[],"default_left":[0,0,0,0,0,0,0,0,0,0,0,0,0,0,0,0,0,0,0,0,0,0,0,0,0,0,0,0,0,0,0,0,0,0,0,0,0,0,0,0,0,0,0,0,0,0,0,0,0,0,0,0,0,0,0,0,0,0,0,0,0,0,0,0,0,0,0,0,0,0,0,0,0,0,0,0,0,0,0,0,0,0,0,0,0,0,0,0,0,0,0,0,0,0,0,0,0,0,0,0,0,0,0,0,0,0,0,0,0,0,0,0,0,0,0,0,0,0,0,0,0,0,0,0,0,0,0],"id":6,"left_children":[1,3,5,7,9,11,13,15,17,19,21,23,25,27,29,31,33,35,37,39,41,43,45,47,49,51,53,55,57,59,61,63,65,67,69,71,73,75,77,79,81,83,85,87,89,91,93,95,97,99,101,103,105,107,109,111,113,115,117,119,121,123,125,-1,-1,-1,-1,-1,-1,-1,-1,-1,-1,-1,-1,-1,-1,-1,-1,-1,-1,-1,-1,-1,-1,-1,-1,-1,-1,-1,-1,-1,-1,-1,-1,-1,-1,-1,-1,-1,-1,-1,-1,-1,-1,-1,-1,-1,-1,-1,-1,-1,-1,-1,-1,-1,-1,-1,-1,-1,-1,-1,-1,-1,-1,-1,-1],"loss_changes":[1.0430112E10,1.638612E9,1.880127E9,2.6548531E8,9.530308E8,1.5329194E8,1.6276383E9,6.756378E7,1.5497024E8,9.086381E7,3.3114E8,3.2741496E7,4.8883424E7,3.1143014E8,2.274862E8,1.3828608E7,3.3316608E7,1.0705705E8,1.94432E7,1.6681792E7,3.734297E7,8.446067E7,5.920652E7,6.013304E6,6.421879E6,1.7099736E7,1.302184E7,3.8638925E8,6.404768E7,4.090163E7,2.8028416E7,1.611136E6,4.625088E6,2.4928792E7,8.460288E6,2.8192672E7,3.949696E6,1.3167872E7,1.5415904E7,4.897344E6,2.8543968E7,9.789288E6,3.6952452E7,2.1422832E7,1.5293376E7,5.897464E6,3.3252932E7,1.594132E6,1.840642E6,3.9431968E6,4.757396E6,4.435516E6,7.462668E6,3.610844E6,2.855304E6,4.4022944E7,4.8179584E7,5.8806656E7,1.016844E7,1.4411008E7,1.316352E7,5.540608E6,5.001344E6,0E0,0E0,0E0,0E0,0E0,0E0,0E0,0E0,0E0,0E0,0E0,0E0,0E0,0E0,0E0,0E0,0E0,0E0,0E0,0E0,0E0,0E0,0E0,0E0,0E0,0E0,0E0,0E0,0E0,0E0,0E0,0E0,0E0,0E0,0E0,0E0,0E0,0E0,0E0,0E0,0E0,0E0,0E0,0E0,0E0,0E0,0E0,0E0,0E0,0E0,0E0,0E0,0E0,0E0,0E0,0E0,0E0,0E0,0E0,0E0,0E0,0E0,0E0,0E0],"parents":[2147483647,0,0,1,1,2,2,3,3,4,4,5,5,6,6,7,7,8,8,9,9,10,10,11,11,12,12,13,13,14,14,15,15,16,16,17,17,18,18,19,19,20,20,21,21,22,22,23,23,24,24,25,25,26,26,27,27,28,28,29,29,30,30,31,31,32,32,33,33,34,34,35,35,36,36,37,37,38,38,39,39,40,40,41,41,42,42,43,43,44,44,45,45,46,46,47,47,48,48,49,49,50,50,51,51,52,52,53,53,54,54,55,55,56,56,57,57,58,58,59,59,60,60,61,61,62,62],"right_children":[2,4,6,8,10,12,14,16,18,20,22,24,26,28,30,32,34,36,38,40,42,44,46,48,50,52,54,56,58,60,62,64,66,68,70,72,74,76,78,80,82,84,86,88,90,92,94,96,98,100,102,104,106,108,110,112,114,116,118,120,122,124,126,-1,-1,-1,-1,-1,-1,-1,-1,-1,-1,-1,-1,-1,-1,-1,-1,-1,-1,-1,-1,-1,-1,-1,-1,-1,-1,-1,-1,-1,-1,-1,-1,-1,-1,-1,-1,-1,-1,-1,-1,-1,-1,-1,-1,-1,-1,-1,-1,-1,-1,-1,-1,-1,-1,-1,-1,-1,-1,-1,-1,-1,-1,-1,-1],"split_conditions":[1.53E3,1.162E3,-4.3388373E-1,9.84E2,1E0,1.4662559E3,2.308E3,8.4E2,-2.5881904E-1,1.348E3,-2.5881904E-1,1.2897076E3,2.624E3,1E0,2.728E3,7.44E2,-2.5881904E-1,1.0720376E3,1.912E3,-4.3388373E-1,-4.3388373E-1,1.33125E3,1.902E3,1.1884286E3,-5E-1,1.966E3,1.7204678E3,1.934E3,-1.8369701E-16,2.48E3,2.0456666E3,6.94E2,-2.5881904E-1,9.302514E2,1.84E3,1E0,-4.3388373E-1,1.086E3,8.660254E-1,1.0304213E3,-2.5881904E-1,1.1136779E3,-5E-1,1.1376813E3,-5E-1,2.5881904E-1,6.123234E-17,3.64E2,-7.818315E-1,1.3886736E3,-7.818315E-1,-5E-1,2.63E1,2.56E1,1.883612E3,1.74E3,1.4756666E3,1.46575E3,2.604E3,1.5243334E3,1.6690834E3,1.9025E3,3.04E3,-3.1957666E1,-2.8950108E1,-1.6884907E1,-2.6161207E1,-1.8437757E1,1.5908469E0,-2.2131718E1,-1.5251381E1,-1.7084578E1,-4.49669E-2,-1.079689E1,1.457811E1,-1.8258518E1,-1.5351555E1,-3.1315668E0,-1.4015292E1,-1.7480062E1,-1.2617248E1,2.060988E0,-1.0332955E1,-1.4245974E1,-7.2802825E0,1.0687065E1,-3.3391614E0,2.958E0,1.8199032E1,3.407149E1,2.295367E1,-2.6048064E0,-9.865599E0,1.5902849E1,2.426286E0,-1.1401352E1,-2.7588636E1,-7.9694953E0,-4.5777144E0,-1.4182752E0,2.6110337E0,-5.8132505E0,-1.805558E-1,1.2505939E1,-1.4035352E0,3.9374368E0,9.308088E0,6.3452473E0,1.2465203E1,1.741853E1,2.5200954E1,4.8517237E0,1.0946744E1,1.2939719E1,2.2340563E1,1.6595762E1,4.155099E1,9.154317E0,2.3341055E1,7.1344886E0,3.1161472E1,2.1049128E1,3.8052628E1,3.86916E1,4.6416176E1,5.1696205E1,5.76905E1],"split_indices":[15,15,7,15,8,16,15,15,6,15,6,16,34,8,15,15,6,16,32,7,7,36,32,16,6,34,16,15,6,15,36,15,6,16,32,8,7,15,6,16,6,16,6,16,6,6,6,23,7,16,7,6,1,1,16,15,36,36,32,36,36,36,15,0,0,0,0,0,0,0,0,0,0,0,0,0,0,0,0,0,0,0,0,0,0,0,0,0,0,0,0,0,0,0,0,0,0,0,0,0,0,0,0,0,0,0,0,0,0,0,0,0,0,0,0,0,0,0,0,0,0,0,0,0,0,0,0],"split_type":[0,0,0,0,0,0,0,0,0,0,0,0,0,0,0,0,0,0,0,0,0,0,0,0,0,0,0,0,0,0,0,0,0,0,0,0,0,0,0,0,0,0,0,0,0,0,0,0,0,0,0,0,0,0,0,0,0,0,0,0,0,0,0,0,0,0,0,0,0,0,0,0,0,0,0,0,0,0,0,0,0,0,0,0,0,0,0,0,0,0,0,0,0,0,0,0,0,0,0,0,0,0,0,0,0,0,0,0,0,0,0,0,0,0,0,0,0,0,0,0,0,0,0,0,0,0,0],"sum_hessian":[1.20061E5,7.024E4,4.9821E4,3.9665E4,3.0575E4,1.2651E4,3.717E4,1.9115E4,2.055E4,2.3737E4,6.838E3,6.861E3,5.79E3,2.5086E4,1.2084E4,6.014E3,1.3101E4,1.77E3,1.878E4,1.3838E4,9.899E3,3.475E3,3.363E3,2.68E3,4.181E3,4.02E3,1.77E3,2.2717E4,2.369E3,8.985E3,3.099E3,2.301E3,3.713E3,6.39E2,1.2462E4,1.06E3,7.1E2,1.6329E4,2.451E3,5.631E3,8.207E3,4.358E3,5.541E3,1.742E3,1.733E3,1.213E3,2.15E3,9.47E2,1.733E3,2.537E3,1.644E3,1.34E3,2.68E3,1.122E3,6.48E2,1.1855E4,1.0862E4,1.82E3,5.49E2,4.456E3,4.529E3,1.29E3,1.809E3,1.394E3,9.07E2,1.47E2,3.566E3,3.74E2,2.65E2,1.1988E4,4.74E2,6.84E2,3.76E2,1.5E1,6.95E2,9.743E3,6.586E3,3.87E2,2.064E3,5.85E2,5.046E3,4.94E2,7.713E3,5.83E2,3.775E3,5.17E2,5.024E3,2.74E2,1.468E3,1.316E3,4.17E2,4.39E2,7.74E2,6.6E2,1.49E3,9.32E2,1.5E1,1.094E3,6.39E2,1.533E3,1.004E3,1.066E3,5.78E2,5.9E1,1.281E3,1.585E3,1.095E3,3.57E2,7.65E2,4.82E2,1.66E2,5.93E3,5.925E3,1.604E3,9.258E3,2.81E2,1.539E3,2.01E2,3.48E2,6.4E1,4.392E3,1.21E2,4.408E3,3.71E2,9.19E2,1.111E3,6.98E2],"tree_param":{"num_deleted":"0","num_feature":"39","num_nodes":"127","size_leaf_vector":"1"}},{"base_weights":[-9.754787E-2,-2.68676E2,2.931188E2,-3.923067E2,-1.3839803E2,1.5451765E2,5.569666E2,-4.9631873E2,-3.4746924E2,-2.1479826E2,1.2989326E2,-5.517422E1,2.4383589E2,1.1134663E2,6.666645E2,-5.863902E2,-4.679435E2,-1.06642426E2,-3.6333646E2,-2.6641486E2,-1.6599287E2,3.761624E2,-6.3206657E1,-1.5941135E2,5.0119524E0,1.9107138E2,5.4706824E2,3.547452E1,2.9285513E2,5.6200684E2,8.537421E2,-6.225355E2,-5.624079E2,-2.6504733E2,-4.7709048E2,-2.7866208E2,1.7472047E2,-3.9480383E2,-3.284933E2,-3.0094913E2,-2.4495177E2,-2.1307823E2,-1.3013188E2,1.7006602E2,4.7948917E2,6.910959E1,-1.8073105E2,-2.3807155E2,-1.3026657E2,-7.28187E1,6.7008385E1,7.2309654E1,3.1335522E2,6.5145233E2,2.6543423E2,-3.4181664E1,9.957233E1,2.465209E2,3.9521606E2,4.4849673E2,6.023459E2,7.621969E2,9.891091E2,-3.1274878E1,-1.4610883E1,-2.8140985E1,3.631836E-1,-1.9579845E1,1.393447E1,-2.5367735E1,-2.2909372E1,-6.417591E0,-2.02037E1,-4.715741E0,1.1148651E1,-1.7897764E1,-2.06005E1,-1.4230563E1,-1.73416E1,-1.7587559E1,-1.445845E1,1.1313542E0,-1.2797385E1,-1.5249496E1,-1.0019587E1,3.3290539E0,-7.4204407E0,-9.752757E0,1.2801622E1,1.6147253E1,2.7475142E1,-7.5811005E0,5.0856776E0,-1.2262263E1,-5.6872993E0,-1.6045382E1,-1.0455079E1,-8.193992E0,-5.0762935E0,-5.785705E0,-1.4037548E0,-5.601489E-1,7.2006235E0,3.2024248E0,2.9795074E1,1.2574552E1,1.8998293E1,1.6761696E1,3.749582E1,3.209887E0,1.6762384E1,-6.2216687E0,-5.492854E-1,6.6292176E0,2.991787E0,1.5473777E1,9.631735E0,1.4299315E1,2.2431467E1,1.0236055E1,2.4044287E1,2.6330011E1,3.2062218E1,1.26434355E1,3.8556183E1,4.493526E1,5.303489E1],"categories":[],"categories_nodes":[],"categories_segments":[],"categories_sizes":[],"default_left":[0,0,0,0,0,0,0,0,0,0,0,0,0,0,0,0,0,0,0,0,0,0,0,0,0,0,0,0,0,0,0,0,0,0,0,0,0,0,0,0,0,0,0,0,0,0,0,0,0,0,0,0,0,0,0,0,0,0,0,0,0,0,0,0,0,0,0,0,0,0,0,0,0,0,0,0,0,0,0,0,0,0,0,0,0,0,0,0,0,0,0,0,0,0,0,0,0,0,0,0,0,0,0,0,0,0,0,0,0,0,0,0,0,0,0,0,0,0,0,0,0,0,0,0,0,0,0],"id":7,"left_children":[1,3,5,7,9,11,13,15,17,19,21,23,25,27,29,31,33,35,37,39,41,43,45,47,49,51,53,55,57,59,61,63,65,67,69,71,73,75,77,79,81,83,85,87,89,91,93,95,97,99,101,103,105,107,109,111,113,115,117,119,121,123,125,-1,-1,-1,-1,-1,-1,-1,-1,-1,-1,-1,-1,-1,-1,-1,-1,-1,-1,-1,-1,-1,-1,-1,-1,-1,-1,-1,-1,-1,-1,-1,-1,-1,-1,-1,-1,-1,-1,-1,-1,-1,-1,-1,-1,-1,-1,-1,-1,-1,-1,-1,-1,-1,-1,-1,-1,-1,-1,-1,-1,-1,-1,-1,-1],"loss_changes":[9.452555E9,1.0089605E9,2.0983875E9,1.4973082E8,6.2530477E8,7.0464755E8,9.6596275E8,2.4465664E7,8.580198E7,5.977101E7,3.2158768E8,7.051017E7,4.22037E8,5.3767056E7,3.1000576E8,1.65664E6,1.3543936E7,6.732462E7,2.297728E7,8.478336E6,2.0584096E7,6.3208E7,5.8964E7,9.400464E6,3.4389416E7,3.263737E8,1.1477376E8,1.2303951E7,5.361552E6,4.6306304E7,6.972058E7,7.11488E5,3.32992E5,2.2128226E7,3.79904E6,1.6216284E7,6.875334E6,6.870656E6,7.954304E6,2.54224E6,2.0957824E7,6.090896E6,2.4932544E7,3.1249764E7,2.15128E7,1.2854379E7,8.649656E6,2.599028E6,2.885436E6,6.061722E6,2.3893248E7,4.928525E7,4.553421E7,8.854886E7,1.4856384E7,2.7641125E6,1.874478E6,2.637332E6,1.954548E6,2.0990784E7,2.1766144E7,1.5249792E7,1.387392E7,0E0,0E0,0E0,0E0,0E0,0E0,0E0,0E0,0E0,0E0,0E0,0E0,0E0,0E0,0E0,0E0,0E0,0E0,0E0,0E0,0E0,0E0,0E0,0E0,0E0,0E0,0E0,0E0,0E0,0E0,0E0,0E0,0E0,0E0,0E0,0E0,0E0,0E0,0E0,0E0,0E0,0E0,0E0,0E0,0E0,0E0,0E0,0E0,0E0,0E0,0E0,0E0,0E0,0E0,0E0,0E0,0E0,0E0,0E0,0E0,0E0,0E0,0E0,0E0],"parents":[2147483647,0,0,1,1,2,2,3,3,4,4,5,5,6,6,7,7,8,8,9,9,10,10,11,11,12,12,13,13,14,14,15,15,16,16,17,17,18,18,19,19,20,20,21,21,22,22,23,23,24,24,25,25,26,26,27,27,28,28,29,29,30,30,31,31,32,32,33,33,34,34,35,35,36,36,37,37,38,38,39,39,40,40,41,41,42,42,43,43,44,44,45,45,46,46,47,47,48,48,49,49,50,50,51,51,52,52,53,53,54,54,55,55,56,56,57,57,58,58,59,59,60,60,61,61,62,62],"right_children":[2,4,6,8,10,12,14,16,18,20,22,24,26,28,30,32,34,36,38,40,42,44,46,48,50,52,54,56,58,60,62,64,66,68,70,72,74,76,78,80,82,84,86,88,90,92,94,96,98,100,102,104,106,108,110,112,114,116,118,120,122,124,126,-1,-1,-1,-1,-1,-1,-1,-1,-1,-1,-1,-1,-1,-1,-1,-1,-1,-1,-1,-1,-1,-1,-1,-1,-1,-1,-1,-1,-1,-1,-1,-1,-1,-1,-1,-1,-1,-1,-1,-1,-1,-1,-1,-1,-1,-1,-1,-1,-1,-1,-1,-1,-1,-1,-1,-1,-1,-1,-1,-1,-1,-1,-1,-1],"split_conditions":[1.418E3,1.098E3,2.174E3,8.92E2,1E0,-4.3388373E-1,-7.818315E-1,7.44E2,-2.5881904E-1,1.228E3,-2.5881904E-1,1.2972833E3,1E0,1.6544131E3,2.564E3,6.6E2,-2.5881904E-1,1.0117007E3,1.004E3,-4.3388373E-1,-4.3388373E-1,2.5411157E2,-5E-1,1.1589362E3,1.976E3,1.808E3,-1.8369701E-16,1.4762926E3,1.8424873E3,1.661E3,2.808E3,1.622E3,1.89E3,8.961667E2,8.22E2,2E0,1.7387383E2,2E0,2E0,1.034E3,-2.5881904E-1,1.0563551E3,-2.5881904E-1,5E-1,8.92E2,3.8457462E2,6E0,1.0477098E3,-7.818315E-1,1.632E3,1.4399076E3,2.11E3,1.998E3,1.4730868E3,5.291731E2,1.3266543E3,-7.0710677E-1,-7.0710677E-1,4.528593E2,4.7452884E2,2.334E3,1.6849166E3,2.0965E3,-3.1274878E1,-1.4610883E1,-2.8140985E1,3.631836E-1,-1.9579845E1,1.393447E1,-2.5367735E1,-2.2909372E1,-6.417591E0,-2.02037E1,-4.715741E0,1.1148651E1,-1.7897764E1,-2.06005E1,-1.4230563E1,-1.73416E1,-1.7587559E1,-1.445845E1,1.1313542E0,-1.2797385E1,-1.5249496E1,-1.0019587E1,3.3290539E0,-7.4204407E0,-9.752757E0,1.2801622E1,1.6147253E1,2.7475142E1,-7.5811005E0,5.0856776E0,-1.2262263E1,-5.6872993E0,-1.6045382E1,-1.0455079E1,-8.193992E0,-5.0762935E0,-5.785705E0,-1.4037548E0,-5.601489E-1,7.2006235E0,3.2024248E0,2.9795074E1,1.2574552E1,1.8998293E1,1.6761696E1,3.749582E1,3.209887E0,1.6762384E1,-6.2216687E0,-5.492854E-1,6.6292176E0,2.991787E0,1.5473777E1,9.631735E0,1.4299315E1,2.2431467E1,1.0236055E1,2.4044287E1,2.6330011E1,3.2062218E1,1.26434355E1,3.8556183E1,4.493526E1,5.303489E1],"split_indices":[15,15,15,15,8,7,7,15,6,15,6,16,8,16,15,15,6,16,15,7,7,37,5,16,34,15,6,16,16,36,15,32,34,35,15,22,37,22,22,32,6,16,6,5,33,37,21,16,7,15,16,34,15,16,37,16,6,6,37,37,15,36,36,0,0,0,0,0,0,0,0,0,0,0,0,0,0,0,0,0,0,0,0,0,0,0,0,0,0,0,0,0,0,0,0,0,0,0,0,0,0,0,0,0,0,0,0,0,0,0,0,0,0,0,0,0,0,0,0,0,0,0,0,0,0,0,0],"split_type":[0,0,0,0,0,0,0,0,0,0,0,0,0,0,0,0,0,0,0,0,0,0,0,0,0,0,0,0,0,0,0,0,0,0,0,0,0,0,0,0,0,0,0,0,0,0,0,0,0,0,0,0,0,0,0,0,0,0,0,0,0,0,0,0,0,0,0,0,0,0,0,0,0,0,0,0,0,0,0,0,0,0,0,0,0,0,0,0,0,0,0,0,0,0,0,0,0,0,0,0,0,0,0,0,0,0,0,0,0,0,0,0,0,0,0,0,0,0,0,0,0,0,0,0,0,0,0],"sum_hessian":[1.20028E5,6.2646E4,5.7382E4,3.2142E4,3.0504E4,3.7621E4,1.9761E4,9.679E3,2.2463E4,2.3743E4,6.761E3,1.1238E4,2.6383E4,3.904E3,1.5857E4,2.314E3,7.365E3,1.389E3,2.1074E4,1.1537E4,1.2206E4,2.971E3,3.79E3,4.113E3,7.125E3,2.2474E4,3.909E3,2.754E3,1.15E3,1.0171E4,5.686E3,9.13E2,1.401E3,3.19E2,7.046E3,8.62E2,5.27E2,1.1068E4,1.0006E4,4.417E3,7.12E3,5.275E3,6.931E3,9.93E2,1.978E3,1.783E3,2.007E3,1.11E3,3.003E3,3.159E3,3.966E3,1.1402E4,1.1072E4,2.851E3,1.058E3,1.32E3,1.434E3,7.94E2,3.56E2,2.67E3,7.501E3,3.396E3,2.29E3,9.04E2,9E0,1.4E3,1E0,2.59E2,6E1,2.699E3,4.347E3,3.93E2,4.69E2,8E1,4.47E2,3.53E3,7.538E3,2.954E3,7.052E3,8.26E2,3.591E3,2.81E2,6.839E3,6.37E2,4.638E3,5.89E2,6.342E3,1.89E2,8.04E2,6.13E2,1.365E3,2.29E2,1.554E3,1.021E3,9.86E2,2.85E2,8.25E2,1.382E3,1.621E3,1.612E3,1.547E3,1.968E3,1.998E3,1.1226E4,1.76E2,5.743E3,5.329E3,6.78E2,2.173E3,2.73E2,7.85E2,2.69E2,1.051E3,7.82E2,6.52E2,3.64E2,4.3E2,1.19E2,2.37E2,3.14E2,2.356E3,2.55E3,4.951E3,5.9E1,3.337E3,1.018E3,1.272E3],"tree_param":{"num_deleted":"0","num_feature":"39","num_nodes":"127","size_leaf_vector":"1"}},{"base_weights":[-5.7475525E-1,-2.2446632E2,3.1583594E2,-3.3942307E2,-5.9332176E1,1.673048E1,4.1816632E2,-4.215006E2,-2.6883057E2,2.4201462E2,-1.4690143E2,-7.229944E1,1.2994722E2,2.8492194E2,6.853216E2,-5.0087952E2,-3.848428E2,-1.2724243E2,-3.028531E2,2.2431477E1,3.8016135E2,-1.9678432E2,-9.2102875E1,-1.5697064E2,-2.8249199E1,7.132423E1,2.5806308E2,5.987467E2,2.5131616E2,6.1345966E2,9.0283826E2,-5.637934E2,-4.729516E2,-4.0140244E2,-3.116313E2,-2.7944836E2,1.1329119E1,-3.3632605E2,-2.7664993E2,-1.4133054E2,1.0193219E2,1.7248228E2,4.8522656E2,-2.3550888E2,-1.6979587E2,-1.5285661E2,-4.4710945E1,-2.1676184E2,-1.283569E2,-4.3733585E1,5.790871E1,-1.8434828E1,1.1508152E2,1.9236795E2,3.5985916E2,3.5004248E2,6.782598E2,1.3668147E2,3.6671906E2,5.520817E2,6.792737E2,7.936189E2,9.7158624E2,-2.8921177E1,-2.5748747E1,-2.3763556E1,-8.710891E0,-2.1525152E1,-1.9230537E1,-8.222683E0,-1.909486E1,-1.5568314E1,-9.166965E0,8.262248E0,-7.2048187E0,-1.8295279E1,-1.5959136E1,-1.532827E1,-1.2922566E1,-8.8029585E0,-2.3259926E0,2.9721504E-1,1.0478287E1,-5.1062236E0,1.2287761E1,1.764363E1,2.9447495E1,-1.2720099E1,-9.768532E0,-8.817061E0,2.6636307E0,-1.3118654E1,-6.7473373E0,-2.8114042E0,1.684915E1,-1.0559323E1,-2.547589E1,-7.5989876E0,-4.359777E0,-4.446319E0,-1.3062438E0,9.78799E-1,5.3478074E0,-2.4341931E0,3.5101163E0,3.8349462E0,8.818123E0,5.8983145E0,1.1357917E1,1.6309036E1,2.2619698E1,7.0936255E0,1.966844E1,2.0601055E1,3.915242E1,6.5199494E0,3.133849E1,1.5397136E1,2.1826672E1,1.411531E1,2.8228132E1,3.0365961E1,3.591516E1,3.4141384E1,4.1791122E1,4.6331913E1,5.2197826E1],"categories":[],"categories_nodes":[],"categories_segments":[],"categories_sizes":[],"default_left":[0,0,0,0,0,0,0,0,0,0,0,0,0,0,0,0,0,0,0,0,0,0,0,0,0,0,0,0,0,0,0,0,0,0,0,0,0,0,0,0,0,0,0,0,0,0,0,0,0,0,0,0,0,0,0,0,0,0,0,0,0,0,0,0,0,0,0,0,0,0,0,0,0,0,0,0,0,0,0,0,0,0,0,0,0,0,0,0,0,0,0,0,0,0,0,0,0,0,0,0,0,0,0,0,0,0,0,0,0,0,0,0,0,0,0,0,0,0,0,0,0,0,0,0,0,0,0],"id":8,"left_children":[1,3,5,7,9,11,13,15,17,19,21,23,25,27,29,31,33,35,37,39,41,43,45,47,49,51,53,55,57,59,61,63,65,67,69,71,73,75,77,79,81,83,85,87,89,91,93,95,97,99,101,103,105,107,109,111,113,115,117,119,121,123,125,-1,-1,-1,-1,-1,-1,-1,-1,-1,-1,-1,-1,-1,-1,-1,-1,-1,-1,-1,-1,-1,-1,-1,-1,-1,-1,-1,-1,-1,-1,-1,-1,-1,-1,-1,-1,-1,-1,-1,-1,-1,-1,-1,-1,-1,-1,-1,-1,-1,-1,-1,-1,-1,-1,-1,-1,-1,-1,-1,-1,-1,-1,-1,-1],"loss_changes":[8.527355E9,1.3381499E9,1.5266995E9,2.4068762E8,7.635402E8,1.2818257E8,1.3227653E9,5.572019E7,1.0760614E8,1.9762198E8,6.126445E7,2.6547912E7,4.202556E7,2.6138803E8,1.9275622E8,1.0393344E7,1.581632E7,9.135007E7,1.57088E7,3.2783726E7,8.717389E7,1.2224448E7,3.0757816E7,4.139812E6,6.251467E6,1.509201E7,1.168072E7,4.718355E7,2.9631E8,3.718861E7,2.2273024E7,1.030592E6,2.83296E6,5.07264E6,2.50672E7,6.274432E6,5.4279908E7,3.892288E6,5.425408E6,2.701659E6,1.7510676E7,2.7088164E7,3.6240576E7,3.6032E6,1.0111536E7,9.148E6,2.6412668E7,1.176956E6,1.591124E6,3.1577465E6,1.3403135E6,3.381715E6,6.062008E6,2.74286E6,1.996544E6,5.202408E6,5.034163E7,3.4525904E7,4.567219E7,1.6059776E7,1.21536E7,4.998144E6,5.144832E6,0E0,0E0,0E0,0E0,0E0,0E0,0E0,0E0,0E0,0E0,0E0,0E0,0E0,0E0,0E0,0E0,0E0,0E0,0E0,0E0,0E0,0E0,0E0,0E0,0E0,0E0,0E0,0E0,0E0,0E0,0E0,0E0,0E0,0E0,0E0,0E0,0E0,0E0,0E0,0E0,0E0,0E0,0E0,0E0,0E0,0E0,0E0,0E0,0E0,0E0,0E0,0E0,0E0,0E0,0E0,0E0,0E0,0E0,0E0,0E0,0E0,0E0,0E0,0E0],"parents":[2147483647,0,0,1,1,2,2,3,3,4,4,5,5,6,6,7,7,8,8,9,9,10,10,11,11,12,12,13,13,14,14,15,15,16,16,17,17,18,18,19,19,20,20,21,21,22,22,23,23,24,24,25,25,26,26,27,27,28,28,29,29,30,30,31,31,32,32,33,33,34,34,35,35,36,36,37,37,38,38,39,39,40,40,41,41,42,42,43,43,44,44,45,45,46,46,47,47,48,48,49,49,50,50,51,51,52,52,53,53,54,54,55,55,56,56,57,57,58,58,59,59,60,60,61,61,62,62],"right_children":[2,4,6,8,10,12,14,16,18,20,22,24,26,28,30,32,34,36,38,40,42,44,46,48,50,52,54,56,58,60,62,64,66,68,70,72,74,76,78,80,82,84,86,88,90,92,94,96,98,100,102,104,106,108,110,112,114,116,118,120,122,124,126,-1,-1,-1,-1,-1,-1,-1,-1,-1,-1,-1,-1,-1,-1,-1,-1,-1,-1,-1,-1,-1,-1,-1,-1,-1,-1,-1,-1,-1,-1,-1,-1,-1,-1,-1,-1,-1,-1,-1,-1,-1,-1,-1,-1,-1,-1,-1,-1,-1,-1,-1,-1,-1,-1,-1,-1,-1,-1,-1,-1,-1,-1,-1,-1],"split_conditions":[1.53E3,1.178E3,-4.3388373E-1,9.84E2,1E0,1.4762926E3,2.294E3,8.4E2,1E0,6E-3,1.336E3,1.2785189E3,2.624E3,1E0,2.728E3,7.22E2,8E0,8E0,1.07E3,4.4488037E2,2.8161578E2,-4.3388373E-1,-4.3388373E-1,1.1738727E3,8.1E0,1.966E3,1.7117958E3,2E-2,1.912E3,2.48E3,2.0344166E3,6E0,4.64E2,9.04E2,1E0,6E0,1.8E1,-4.3388373E-1,-4.3388373E-1,1.324E3,1.36E3,5E-1,1.458E3,4.6E0,1.53E3,1.1076708E3,1.778E3,3.64E2,-7.818315E-1,1.988E3,1.4092188E3,1.85E3,8.7E0,7.5E0,1.883612E3,4.882054E2,1.5737756E3,2.226E3,2.11E3,4.9630414E2,1.7971666E3,6.39121E2,3.04E3,-2.8921177E1,-2.5748747E1,-2.3763556E1,-8.710891E0,-2.1525152E1,-1.9230537E1,-8.222683E0,-1.909486E1,-1.5568314E1,-9.166965E0,8.262248E0,-7.2048187E0,-1.8295279E1,-1.5959136E1,-1.532827E1,-1.2922566E1,-8.8029585E0,-2.3259926E0,2.9721504E-1,1.0478287E1,-5.1062236E0,1.2287761E1,1.764363E1,2.9447495E1,-1.2720099E1,-9.768532E0,-8.817061E0,2.6636307E0,-1.3118654E1,-6.7473373E0,-2.8114042E0,1.684915E1,-1.0559323E1,-2.547589E1,-7.5989876E0,-4.359777E0,-4.446319E0,-1.3062438E0,9.78799E-1,5.3478074E0,-2.4341931E0,3.5101163E0,3.8349462E0,8.818123E0,5.8983145E0,1.1357917E1,1.6309036E1,2.2619698E1,7.0936255E0,1.966844E1,2.0601055E1,3.915242E1,6.5199494E0,3.133849E1,1.5397136E1,2.1826672E1,1.411531E1,2.8228132E1,3.0365961E1,3.591516E1,3.4141384E1,4.1791122E1,4.6331913E1,5.2197826E1],"split_indices":[15,15,7,15,22,16,15,15,22,0,15,16,34,22,15,15,21,21,15,37,37,7,7,16,12,34,16,0,15,15,36,21,0,15,22,21,21,7,7,15,34,5,34,12,34,16,34,23,7,34,16,15,12,12,16,37,16,34,15,37,36,37,15,0,0,0,0,0,0,0,0,0,0,0,0,0,0,0,0,0,0,0,0,0,0,0,0,0,0,0,0,0,0,0,0,0,0,0,0,0,0,0,0,0,0,0,0,0,0,0,0,0,0,0,0,0,0,0,0,0,0,0,0,0,0,0,0],"split_type":[0,0,0,0,0,0,0,0,0,0,0,0,0,0,0,0,0,0,0,0,0,0,0,0,0,0,0,0,0,0,0,0,0,0,0,0,0,0,0,0,0,0,0,0,0,0,0,0,0,0,0,0,0,0,0,0,0,0,0,0,0,0,0,0,0,0,0,0,0,0,0,0,0,0,0,0,0,0,0,0,0,0,0,0,0,0,0,0,0,0,0,0,0,0,0,0,0,0,0,0,0,0,0,0,0,0,0,0,0,0,0,0,0,0,0,0,0,0,0,0,0,0,0,0,0,0,0],"sum_hessian":[1.2037E5,7.0491E4,4.9879E4,4.1559E4,2.8932E4,1.2715E4,3.7164E4,1.9214E4,2.2345E4,6.514E3,2.2418E4,7.118E3,5.597E3,2.4798E4,1.2366E4,6.066E3,1.3148E4,4.33E3,1.8015E4,2.516E3,3.998E3,1.1734E4,1.0684E4,2.435E3,4.683E3,3.841E3,1.756E3,2.397E3,2.2401E4,9.298E3,3.068E3,1.859E3,4.207E3,1.0719E4,2.429E3,2.063E3,2.267E3,7.905E3,1.011E4,8.22E2,1.694E3,1.344E3,2.654E3,4.816E3,6.918E3,4.681E3,6.003E3,7.86E2,1.649E3,3.97E3,7.13E2,1.259E3,2.582E3,1.069E3,6.87E2,5.82E2,1.815E3,1.1239E4,1.1162E4,4.816E3,4.482E3,1.19E3,1.878E3,1.422E3,4.37E2,4.174E3,3.3E1,3.913E3,6.806E3,7.86E2,1.643E3,1.547E3,5.16E2,1.139E3,1.128E3,2.893E3,5.012E3,3.818E3,6.292E3,6.01E2,2.21E2,8.96E2,7.98E2,2.83E2,1.061E3,1.168E3,1.486E3,3.271E3,1.545E3,6.721E3,1.97E2,6.56E2,4.025E3,5.828E3,1.75E2,7.73E2,1.3E1,1.046E3,6.03E2,1.112E3,2.858E3,4.01E2,3.12E2,9.39E2,3.2E2,1.589E3,9.93E2,3.42E2,7.27E2,5.07E2,1.8E2,1.01E2,4.81E2,5.14E2,1.301E3,1.1098E4,1.41E2,6.063E3,5.099E3,2.14E2,4.602E3,1.582E3,2.9E3,3.33E2,8.57E2,1.167E3,7.11E2],"tree_param":{"num_deleted":"0","num_feature":"39","num_nodes":"127","size_leaf_vector":"1"}},{"base_weights":[4.8380154E-1,-2.4666528E2,2.5915265E2,-3.536949E2,-1.2899594E2,1.2884825E2,4.9236514E2,-4.404314E2,-3.0997586E2,-1.978118E2,1.1009211E2,8.3149666E1,4.9018338E2,9.5175896E1,5.8877924E2,-5.113332E2,-4.102596E2,-8.23294E1,-3.2524426E2,-2.4317256E2,-1.5669984E2,3.3647845E2,-6.500083E1,-5.682215E1,1.5577518E2,6.497339E2,3.265833E2,2.0034857E1,2.4985657E2,4.915107E2,7.632906E2,-5.494106E2,-4.820468E2,-2.299611E2,-4.185999E2,-2.8704422E2,1.1593083E2,-3.5180368E2,-2.935608E2,-2.730086E2,-2.248438E2,-1.989399E2,-1.2483536E2,1.6826689E2,4.3497565E2,5.538769E1,-1.6533218E2,-1.4048012E2,6.370526E-1,5.6899757E1,2.6694614E2,3.1953973E2,7.5680835E2,4.1474734E2,1.772592E2,-6.227319E1,5.9681656E1,2.0124158E2,3.3934735E2,3.689398E2,5.2493506E2,6.838937E2,8.957138E2,-2.4221289E1,-2.7894058E1,-1.5634424E1,-2.439607E1,-1.7262238E1,1.0734789E1,-1.9459993E1,-2.177974E1,-1.8279457E1,-5.969396E0,8.04566E0,-7.1375885E0,-1.5863864E1,-1.8379784E1,-1.2608999E1,-1.5525711E1,-1.4456204E1,-1.2041259E1,1.1561879E0,-1.1724773E1,-1.4624431E1,-9.434119E0,6.970009E0,-7.0004497E0,-5.221658E0,1.1277522E1,2.3550251E1,1.3971972E1,1.1049959E1,1.0613486E0,-1.1127387E1,-5.3546524E0,-1.0900556E1,-5.6344056E0,-1.5531969E0,6.9530845E0,9.257123E0,1.403457E0,1.0726537E0,1.4103759E1,4.514097E0,2.134361E1,3.234981E1,4.677146E1,1.2421128E1,2.7455725E1,3.341711E0,1.4404056E1,-5.567659E0,-1.69921E0,2.0448253E0,6.163057E0,1.3109774E1,7.265243E0,1.3171707E1,2.0285229E1,-2.9680734E0,1.9257322E1,2.3229698E1,2.8583235E1,3.0310974E1,3.6531147E1,4.0526875E1,4.815791E1],"categories":[],"categories_nodes":[],"categories_segments":[],"categories_sizes":[],"default_left":[0,0,0,0,0,0,0,0,0,0,0,0,0,0,0,0,0,0,0,0,0,0,0,0,0,0,0,0,0,0,0,0,0,0,0,0,0,0,0,0,0,0,0,0,0,0,0,0,0,0,0,0,0,0,0,0,0,0,0,0,0,0,0,0,0,0,0,0,0,0,0,0,0,0,0,0,0,0,0,0,0,0,0,0,0,0,0,0,0,0,0,0,0,0,0,0,0,0,0,0,0,0,0,0,0,0,0,0,0,0,0,0,0,0,0,0,0,0,0,0,0,0,0,0,0,0,0],"id":9,"left_children":[1,3,5,7,9,11,13,15,17,19,21,23,25,27,29,31,33,35,37,39,41,43,45,47,49,51,53,55,57,59,61,63,65,67,69,71,73,75,77,79,81,83,85,87,89,91,93,95,97,99,101,103,105,107,109,111,113,115,117,119,121,123,125,-1,-1,-1,-1,-1,-1,-1,-1,-1,-1,-1,-1,-1,-1,-1,-1,-1,-1,-1,-1,-1,-1,-1,-1,-1,-1,-1,-1,-1,-1,-1,-1,-1,-1,-1,-1,-1,-1,-1,-1,-1,-1,-1,-1,-1,-1,-1,-1,-1,-1,-1,-1,-1,-1,-1,-1,-1,-1,-1,-1,-1,-1,-1,-1],"loss_changes":[7.6857646E9,7.7423974E8,1.7850245E9,1.2194816E8,4.818658E8,6.2226605E8,8.062761E8,2.2866304E7,7.438643E7,4.237088E7,2.5949651E8,3.4011674E8,1.1022746E8,4.7811468E7,2.872228E8,3.321472E6,1.1289984E7,5.470371E7,1.6779648E7,5.850112E6,1.6035136E7,4.7229504E7,4.4603876E7,5.494319E7,2.4211824E8,7.545402E7,2.7454544E7,9.04292E6,5.783256E6,4.438835E7,6.31232E7,4.95488E5,1.664128E6,1.7349306E7,3.446016E6,8.6871E6,7.993735E6,5.831424E6,6.344384E6,2.061504E6,1.6045344E7,4.866496E6,2.729956E7,1.6519572E7,9.955328E6,9.494096E6,6.68718E6,1.00036E7,2.9743142E7,4.310551E7,3.8505216E7,1.2904648E7,3.1092224E7,2.9229632E7,9.501526E6,1.247185E6,2.228393E6,2.94186E6,2.270772E6,1.623088E7,2.383744E7,1.3328E7,1.2253952E7,0E0,0E0,0E0,0E0,0E0,0E0,0E0,0E0,0E0,0E0,0E0,0E0,0E0,0E0,0E0,0E0,0E0,0E0,0E0,0E0,0E0,0E0,0E0,0E0,0E0,0E0,0E0,0E0,0E0,0E0,0E0,0E0,0E0,0E0,0E0,0E0,0E0,0E0,0E0,0E0,0E0,0E0,0E0,0E0,0E0,0E0,0E0,0E0,0E0,0E0,0E0,0E0,0E0,0E0,0E0,0E0,0E0,0E0,0E0,0E0,0E0,0E0,0E0,0E0],"parents":[2147483647,0,0,1,1,2,2,3,3,4,4,5,5,6,6,7,7,8,8,9,9,10,10,11,11,12,12,13,13,14,14,15,15,16,16,17,17,18,18,19,19,20,20,21,21,22,22,23,23,24,24,25,25,26,26,27,27,28,28,29,29,30,30,31,31,32,32,33,33,34,34,35,35,36,36,37,37,38,38,39,39,40,40,41,41,42,42,43,43,44,44,45,45,46,46,47,47,48,48,49,49,50,50,51,51,52,52,53,53,54,54,55,55,56,56,57,57,58,58,59,59,60,60,61,61,62,62],"right_children":[2,4,6,8,10,12,14,16,18,20,22,24,26,28,30,32,34,36,38,40,42,44,46,48,50,52,54,56,58,60,62,64,66,68,70,72,74,76,78,80,82,84,86,88,90,92,94,96,98,100,102,104,106,108,110,112,114,116,118,120,122,124,126,-1,-1,-1,-1,-1,-1,-1,-1,-1,-1,-1,-1,-1,-1,-1,-1,-1,-1,-1,-1,-1,-1,-1,-1,-1,-1,-1,-1,-1,-1,-1,-1,-1,-1,-1,-1,-1,-1,-1,-1,-1,-1,-1,-1,-1,-1,-1,-1,-1,-1,-1,-1,-1,-1,-1,-1,-1,-1,-1,-1,-1,-1,-1,-1],"split_conditions":[1.398E3,1.098E3,2.136E3,9.04E2,1E0,1E0,-7.818315E-1,7.76E2,-2.5881904E-1,1.218E3,-2.5881904E-1,-4.3388373E-1,-5E-1,1.6236351E3,2.546E3,6.94E2,-2.5881904E-1,9.773572E2,1.012E3,-4.3388373E-1,-4.3388373E-1,1.2356836E3,-5E-1,1.3083903E3,1.798E3,1.4496632E3,6.123234E-17,1.4127546E3,1.8100574E3,1.6230834E3,2.808E3,2.5881904E-1,-2.5881904E-1,9.302514E2,2E0,1E0,3E0,2E0,2E0,2.1E1,-2.5881904E-1,1.0392656E3,-5E-1,2.5881904E-1,-5E-1,-1.8369701E-16,6E0,1.1589362E3,2.82E1,-5E-1,1.3455834E3,2.5881904E-1,1.6288334E3,1.7951825E3,1.9798553E3,1.3266543E3,2.55E1,-7.0710677E-1,1.8598334E3,1.4360834E3,2.334E3,1.8391666E3,2.0965E3,-2.4221289E1,-2.7894058E1,-1.5634424E1,-2.439607E1,-1.7262238E1,1.0734789E1,-1.9459993E1,-2.177974E1,-1.8279457E1,-5.969396E0,8.04566E0,-7.1375885E0,-1.5863864E1,-1.8379784E1,-1.2608999E1,-1.5525711E1,-1.4456204E1,-1.2041259E1,1.1561879E0,-1.1724773E1,-1.4624431E1,-9.434119E0,6.970009E0,-7.0004497E0,-5.221658E0,1.1277522E1,2.3550251E1,1.3971972E1,1.1049959E1,1.0613486E0,-1.1127387E1,-5.3546524E0,-1.0900556E1,-5.6344056E0,-1.5531969E0,6.9530845E0,9.257123E0,1.403457E0,1.0726537E0,1.4103759E1,4.514097E0,2.134361E1,3.234981E1,4.677146E1,1.2421128E1,2.7455725E1,3.341711E0,1.4404056E1,-5.567659E0,-1.69921E0,2.0448253E0,6.163057E0,1.3109774E1,7.265243E0,1.3171707E1,2.0285229E1,-2.9680734E0,1.9257322E1,2.3229698E1,2.8583235E1,3.0310974E1,3.6531147E1,4.0526875E1,4.815791E1],"split_indices":[15,15,15,15,8,8,7,15,6,15,6,7,6,16,15,15,6,16,15,7,7,16,5,16,15,16,6,16,16,36,15,6,6,16,22,8,22,22,22,1,6,16,6,5,6,6,21,16,1,6,36,5,36,16,16,16,1,6,36,36,15,36,36,0,0,0,0,0,0,0,0,0,0,0,0,0,0,0,0,0,0,0,0,0,0,0,0,0,0,0,0,0,0,0,0,0,0,0,0,0,0,0,0,0,0,0,0,0,0,0,0,0,0,0,0,0,0,0,0,0,0,0,0,0,0,0,0],"split_type":[0,0,0,0,0,0,0,0,0,0,0,0,0,0,0,0,0,0,0,0,0,0,0,0,0,0,0,0,0,0,0,0,0,0,0,0,0,0,0,0,0,0,0,0,0,0,0,0,0,0,0,0,0,0,0,0,0,0,0,0,0,0,0,0,0,0,0,0,0,0,0,0,0,0,0,0,0,0,0,0,0,0,0,0,0,0,0,0,0,0,0,0,0,0,0,0,0,0,0,0,0,0,0,0,0,0,0,0,0,0,0,0,0,0,0,0,0,0,0,0,0,0,0,0,0,0,0],"sum_hessian":[1.2022E5,6.1479E4,5.8741E4,3.2194E4,2.9285E4,3.7686E4,2.1055E4,1.0786E4,2.1408E4,2.274E4,6.545E3,3.3456E4,4.23E3,4.113E3,1.6942E4,3.215E3,7.571E3,1.346E3,2.0062E4,1.0809E4,1.1931E4,2.854E3,3.691E3,1.1429E4,2.2027E4,2.14E3,2.09E3,2.769E3,1.344E3,1.0881E4,6.061E3,1.39E3,1.825E3,3.36E2,7.235E3,6.62E2,6.84E2,1.0908E4,9.154E3,4.108E3,6.701E3,5.128E3,6.803E3,1.055E3,1.799E3,1.678E3,2.013E3,4.653E3,6.776E3,1.1659E4,1.0368E4,5.25E2,1.615E3,1.313E3,7.77E2,9E2,1.869E3,8.73E2,4.71E2,2.334E3,8.547E3,3.793E3,2.268E3,1.67E2,1.223E3,6.3E1,1.762E3,2.67E2,6.9E1,2.659E3,4.576E3,4.5E2,2.12E2,5.83E2,1.01E2,3.43E3,7.478E3,2.665E3,6.489E3,2.732E3,1.376E3,2.51E2,6.45E3,5.04E2,4.624E3,3.69E2,6.434E3,1.83E2,8.72E2,1.459E3,3.4E2,2.86E2,1.392E3,1.014E3,9.99E2,1.226E3,3.427E3,5.514E3,1.262E3,2.139E3,9.52E3,6.02E2,9.766E3,1.68E2,3.57E2,1.003E3,6.12E2,5.88E2,7.25E2,3.9E2,3.87E2,3.28E2,5.72E2,1.444E3,4.25E2,4.16E2,4.57E2,2.22E2,2.49E2,8.5E1,2.249E3,3.735E3,4.812E3,1.43E3,2.363E3,1.008E3,1.26E3],"tree_param":{"num_deleted":"0","num_feature":"39","num_nodes":"127","size_leaf_vector":"1"}},{"base_weights":[2.3313491E-1,-1.9270345E2,2.9977258E2,-3.059566E2,-4.4174973E1,1.1472097E2,4.381185E2,-3.731774E2,-2.346708E2,-1.2353784E2,2.3454819E2,-2.799948E1,2.1320416E2,5.6908093E2,2.9805643E2,-4.4851093E2,-3.397652E2,-2.437841E0,-2.5889935E2,-1.709663E2,-6.635816E1,4.0202856E2,4.64806E1,-1.0952407E2,3.369043E1,5.62235E1,2.6187857E2,1.8239946E2,6.368745E2,2.0923837E2,4.5725436E2,-5.0052066E2,-4.1962265E2,-1.5854E2,-3.4924585E2,-1.8734024E2,2.3820685E2,-2.722272E2,-2.0104738E2,-2.0625029E2,-1.4588283E2,-1.23386505E2,-2.1387257E1,1.5532764E2,4.8749625E2,-1.1181154E2,1.2970525E2,-1.6829741E2,-7.265937E1,5.4998046E-1,1.1391077E2,-1.6575412E2,8.984174E1,3.3248367E2,1.4324474E2,1.0222444E2,3.082479E2,5.4524274E2,7.927145E2,1.8338283E2,4.6936804E2,1.7795782E2,4.8939706E2,-2.6690725E1,-2.3916594E1,-1.371478E1,-2.1283201E1,-1.4377832E1,6.0607543E0,-1.7925247E1,-1.4196248E1,-1.1142472E0,-1.5194577E1,1.3887418E1,5.0328374E0,-1.4684229E1,-1.2508409E1,-2.1370466E0,-1.1413908E1,-1.4077838E1,-9.850942E0,4.479525E0,-7.845379E0,-9.441913E0,-4.650091E0,8.906927E0,-2.168963E0,-3.982309E0,1.4072818E1,1.8913763E1,2.8902777E1,-7.993184E0,-2.5786445E0,1.37042055E1,2.6879435E0,-1.0383302E1,-7.18074E0,-2.123E0,-5.380509E0,7.1433383E-1,-5.8018193E0,3.2962387E0,7.2969055E0,-1.6446709E1,-2.158274E0,4.900488E0,-2.2252634E1,2.9122572E1,1.5548701E1,3.8762054E0,1.031869E1,3.3482308E0,1.0417496E1,1.3725311E1,2.184429E1,2.0834074E1,2.8926477E1,3.4216366E1,4.4312836E1,4.676107E0,1.1544524E1,2.7662672E1,1.5053416E1,6.191534E-1,1.0955249E1,2.2249668E1,3.2063686E1],"categories":[],"categories_nodes":[],"categories_segments":[],"categories_sizes":[],"default_left":[0,0,0,0,0,0,0,0,0,0,0,0,0,0,0,0,0,0,0,0,0,0,0,0,0,0,0,0,0,0,0,0,0,0,0,0,0,0,0,0,0,0,0,0,0,0,0,0,0,0,0,0,0,0,0,0,0,0,0,0,0,0,0,0,0,0,0,0,0,0,0,0,0,0,0,0,0,0,0,0,0,0,0,0,0,0,0,0,0,0,0,0,0,0,0,0,0,0,0,0,0,0,0,0,0,0,0,0,0,0,0,0,0,0,0,0,0,0,0,0,0,0,0,0,0,0,0],"id":10,"left_children":[1,3,5,7,9,11,13,15,17,19,21,23,25,27,29,31,33,35,37,39,41,43,45,47,49,51,53,55,57,59,61,63,65,67,69,71,73,75,77,79,81,83,85,87,89,91,93,95,97,99,101,103,105,107,109,111,113,115,117,119,121,123,125,-1,-1,-1,-1,-1,-1,-1,-1,-1,-1,-1,-1,-1,-1,-1,-1,-1,-1,-1,-1,-1,-1,-1,-1,-1,-1,-1,-1,-1,-1,-1,-1,-1,-1,-1,-1,-1,-1,-1,-1,-1,-1,-1,-1,-1,-1,-1,-1,-1,-1,-1,-1,-1,-1,-1,-1,-1,-1,-1,-1,-1,-1,-1,-1],"loss_changes":[6.9351695E9,1.2277578E9,1.2035359E9,1.9835392E8,6.9854285E8,2.8270554E8,4.9327155E8,5.34912E7,1.1310106E8,6.6648224E7,2.2043318E8,4.130888E7,9.092013E7,3.642926E8,1.8373389E8,9.62368E6,2.5318016E7,8.4586616E7,1.3979776E7,1.186048E7,2.8582564E7,7.798074E7,4.346172E7,7.65342E6,1.2431261E7,2.1044216E7,7.604128E7,2.0905032E7,1.684562E8,5.605411E7,4.1702464E7,1.467392E6,3.58304E6,2.6599352E7,8.385536E6,2.067344E7,4.464604E6,6.927488E6,1.4698704E7,3.82368E6,2.0408496E7,9.755064E6,2.7357952E7,2.8296058E7,2.6971648E7,3.28291E6,2.3691712E7,1.294632E6,2.292181E6,5.302661E6,2.091272E6,7.407293E6,1.0738992E7,3.043392E7,1.4052856E7,4.734602E6,3.382824E6,3.1644672E7,4.3770624E7,3.2397696E7,1.0478304E7,3.281117E6,2.7863616E7,0E0,0E0,0E0,0E0,0E0,0E0,0E0,0E0,0E0,0E0,0E0,0E0,0E0,0E0,0E0,0E0,0E0,0E0,0E0,0E0,0E0,0E0,0E0,0E0,0E0,0E0,0E0,0E0,0E0,0E0,0E0,0E0,0E0,0E0,0E0,0E0,0E0,0E0,0E0,0E0,0E0,0E0,0E0,0E0,0E0,0E0,0E0,0E0,0E0,0E0,0E0,0E0,0E0,0E0,0E0,0E0,0E0,0E0,0E0,0E0,0E0,0E0,0E0,0E0],"parents":[2147483647,0,0,1,1,2,2,3,3,4,4,5,5,6,6,7,7,8,8,9,9,10,10,11,11,12,12,13,13,14,14,15,15,16,16,17,17,18,18,19,19,20,20,21,21,22,22,23,23,24,24,25,25,26,26,27,27,28,28,29,29,30,30,31,31,32,32,33,33,34,34,35,35,36,36,37,37,38,38,39,39,40,40,41,41,42,42,43,43,44,44,45,45,46,46,47,47,48,48,49,49,50,50,51,51,52,52,53,53,54,54,55,55,56,56,57,57,58,58,59,59,60,60,61,61,62,62],"right_children":[2,4,6,8,10,12,14,16,18,20,22,24,26,28,30,32,34,36,38,40,42,44,46,48,50,52,54,56,58,60,62,64,66,68,70,72,74,76,78,80,82,84,86,88,90,92,94,96,98,100,102,104,106,108,110,112,114,116,118,120,122,124,126,-1,-1,-1,-1,-1,-1,-1,-1,-1,-1,-1,-1,-1,-1,-1,-1,-1,-1,-1,-1,-1,-1,-1,-1,-1,-1,-1,-1,-1,-1,-1,-1,-1,-1,-1,-1,-1,-1,-1,-1,-1,-1,-1,-1,-1,-1,-1,-1,-1,-1,-1,-1,-1,-1,-1,-1,-1,-1,-1,-1,-1,-1,-1,-1],"split_conditions":[1.578E3,1.178E3,1.60975E3,1.004E3,1E0,-4.3388373E-1,-5E-1,8.48E2,-2.5881904E-1,1.366E3,-2.5881904E-1,1.3547515E3,1.3815E3,-4.3388373E-1,2.136E3,7.44E2,-2.5881904E-1,1.0720376E3,1.85E3,-4.3388373E-1,-4.3388373E-1,2.5411157E2,4.3136707E2,1.2356836E3,2.59E1,3.57862E2,-5E-1,1.6544131E3,1.836667E3,1E0,-7.818315E-1,6.6E2,-2.5881904E-1,2.0143306E2,1.668E3,2E0,-5E-1,1.086E3,-5E-1,1.0392656E3,-5E-1,-7.818315E-1,-5E-1,7.0710677E-1,1.3739166E3,1.27E3,6.123234E-17,1.1535587E3,-7.0710677E-1,5E-1,1.4955834E3,1.24025E3,3.63E2,1.73E3,1.778E3,9.5E0,1.8539464E3,1.5494253E3,2.76E1,1.778E3,6.123234E-17,1.4443334E3,2.512E3,-2.6690725E1,-2.3916594E1,-1.371478E1,-2.1283201E1,-1.4377832E1,6.0607543E0,-1.7925247E1,-1.4196248E1,-1.1142472E0,-1.5194577E1,1.3887418E1,5.0328374E0,-1.4684229E1,-1.2508409E1,-2.1370466E0,-1.1413908E1,-1.4077838E1,-9.850942E0,4.479525E0,-7.845379E0,-9.441913E0,-4.650091E0,8.906927E0,-2.168963E0,-3.982309E0,1.4072818E1,1.8913763E1,2.8902777E1,-7.993184E0,-2.5786445E0,1.37042055E1,2.6879435E0,-1.0383302E1,-7.18074E0,-2.123E0,-5.380509E0,7.1433383E-1,-5.8018193E0,3.2962387E0,7.2969055E0,-1.6446709E1,-2.158274E0,4.900488E0,-2.2252634E1,2.9122572E1,1.5548701E1,3.8762054E0,1.031869E1,3.3482308E0,1.0417496E1,1.3725311E1,2.184429E1,2.0834074E1,2.8926477E1,3.4216366E1,4.4312836E1,4.676107E0,1.1544524E1,2.7662672E1,1.5053416E1,6.191534E-1,1.0955249E1,2.2249668E1,3.2063686E1],"split_indices":[15,15,36,15,8,7,6,15,6,15,6,16,36,7,15,15,6,16,32,7,7,37,37,16,1,37,6,16,16,8,7,15,6,37,32,22,6,15,5,16,6,7,6,5,36,15,6,16,6,6,36,36,23,15,15,12,16,16,1,15,6,35,15,0,0,0,0,0,0,0,0,0,0,0,0,0,0,0,0,0,0,0,0,0,0,0,0,0,0,0,0,0,0,0,0,0,0,0,0,0,0,0,0,0,0,0,0,0,0,0,0,0,0,0,0,0,0,0,0,0,0,0,0,0,0,0,0],"split_type":[0,0,0,0,0,0,0,0,0,0,0,0,0,0,0,0,0,0,0,0,0,0,0,0,0,0,0,0,0,0,0,0,0,0,0,0,0,0,0,0,0,0,0,0,0,0,0,0,0,0,0,0,0,0,0,0,0,0,0,0,0,0,0,0,0,0,0,0,0,0,0,0,0,0,0,0,0,0,0,0,0,0,0,0,0,0,0,0,0,0,0,0,0,0,0,0,0,0,0,0,0,0,0,0,0,0,0,0,0,0,0,0,0,0,0,0,0,0,0,0,0,0,0,0,0,0,0],"sum_hessian":[1.2E5,7.2988E4,4.7012E4,4.1411E4,3.1577E4,2.0112E4,2.69E4,2.1311E4,2.01E4,2.4579E4,6.998E3,8.212E3,1.19E4,1.39E4,1.3E4,6.544E3,1.4767E4,1.899E3,1.8201E4,1.3434E4,1.1145E4,3.701E3,3.297E3,3.537E3,4.675E3,2.817E3,9.083E3,2.074E3,1.1826E4,8.346E3,4.654E3,2.331E3,4.213E3,7.35E2,1.4032E4,1.074E3,8.25E2,1.479E4,3.411E3,5.579E3,7.855E3,4.913E3,6.232E3,9.53E2,2.748E3,1.136E3,2.161E3,1.362E3,2.175E3,3.309E3,1.366E3,3.7E2,2.447E3,5.693E3,3.39E3,1.268E3,8.06E2,7.45E3,4.376E3,7.593E3,7.53E2,4.81E2,4.173E3,9.23E2,1.408E3,1.7E2,4.043E3,5.03E2,2.32E2,1.2286E4,1.746E3,4.45E2,6.29E2,6.4E2,1.85E2,7.491E3,7.299E3,5.01E2,2.91E3,6.06E2,4.973E3,3.51E2,7.504E3,1.556E3,3.357E3,6.18E2,5.614E3,3.33E2,6.2E2,1.248E3,1.5E3,6.31E2,5.05E2,7.44E2,1.417E3,5.22E2,8.4E2,1.168E3,1.007E3,2.961E3,3.48E2,5.48E2,8.18E2,1.58E2,2.12E2,2.411E3,3.6E1,4.49E2,5.244E3,1.662E3,1.728E3,9.53E2,3.15E2,6.41E2,1.65E2,1.535E3,5.915E3,2.031E3,2.345E3,2.627E3,4.966E3,5.01E2,2.52E2,9.6E1,3.85E2,3.232E3,9.41E2],"tree_param":{"num_deleted":"0","num_feature":"39","num_nodes":"127","size_leaf_vector":"1"}},{"base_weights":[3.1821486E-1,-2.223944E2,2.3590553E2,-3.0591602E2,-9.845275E1,1.27978516E2,4.6314563E2,-3.7750458E2,-2.5579349E2,1.1949233E2,-1.7542728E2,-4.6980778E1,2.015992E2,9.202265E1,5.53991E2,-4.5052682E2,-3.5066647E2,-3.5490623E1,-2.633111E2,2.7669513E2,-3.8820244E1,-2.3145226E2,-1.4306705E2,-8.112165E1,7.926876E1,4.4543936E2,1.5859224E2,2.171426E1,2.2511693E2,4.8731393E2,7.4863275E2,-4.856053E2,-4.2168628E2,-1.4878914E2,-3.5862833E2,-1.738915E2,1.9055891E2,-2.9182483E2,-2.274691E2,6.2667053E1,3.594088E2,-1.5413521E2,5.3530663E1,-3.6434924E2,-2.1863963E2,-2.3126926E1,-1.5370273E2,-1.5747305E2,-4.779092E1,-1.5160187E1,1.5302477E2,5.89949E2,2.9776868E2,5.3859467E1,2.5902728E2,-1.9804916E1,8.371324E1,1.903478E2,3.26476E2,4.3557645E2,5.644783E2,6.550623E2,8.33629E2,-1.7132788E1,-2.4508963E1,-1.9419525E1,-2.1971518E1,-1.6127016E1,6.463638E0,-1.8547451E1,-1.5975963E1,-1.4225301E1,-4.501413E0,1.976308E1,5.60288E0,-1.2883052E1,-1.5344049E1,-9.342768E0,-1.2499632E1,-1.3137896E1,4.790281E0,1.5366838E1,2.3683752E1,-4.302316E0,-9.264341E0,9.302923E0,8.867402E-2,-2.1519503E1,-1.7127737E1,-1.24041E1,-9.220006E0,1.6091982E1,-3.7505653E0,-1.0851667E1,-7.016378E0,-1.3415888E1,-7.194394E0,-6.0229163E0,-1.2223886E0,-4.8594737E0,6.017425E-1,3.8430264E0,9.138076E0,1.4320258E1,3.451223E1,7.8535714E0,1.8906965E1,2.3054683E0,2.5742521E1,1.0090225E1,1.5855321E1,-4.7395205E0,4.126437E-2,5.675133E0,2.4150362E0,1.1868856E1,7.2714877E0,1.2963096E1,1.9687504E1,1.3619452E1,2.26047E1,1.1172238E1,2.8565586E1,1.255297E1,3.335956E1,4.3991264E1,3.7830612E1],"categories":[],"categories_nodes":[],"categories_segments":[],"categories_sizes":[],"default_left":[0,0,0,0,0,0,0,0,0,0,0,0,0,0,0,0,0,0,0,0,0,0,0,0,0,0,0,0,0,0,0,0,0,0,0,0,0,0,0,0,0,0,0,0,0,0,0,0,0,0,0,0,0,0,0,0,0,0,0,0,0,0,0,0,0,0,0,0,0,0,0,0,0,0,0,0,0,0,0,0,0,0,0,0,0,0,0,0,0,0,0,0,0,0,0,0,0,0,0,0,0,0,0,0,0,0,0,0,0,0,0,0,0,0,0,0,0,0,0,0,0,0,0,0,0,0,0],"id":11,"left_children":[1,3,5,7,9,11,13,15,17,19,21,23,25,27,29,31,33,35,37,39,41,43,45,47,49,51,53,55,57,59,61,63,65,67,69,71,73,75,77,79,81,83,85,87,89,91,93,95,97,99,101,103,105,107,109,111,113,115,117,119,121,123,125,-1,-1,-1,-1,-1,-1,-1,-1,-1,-1,-1,-1,-1,-1,-1,-1,-1,-1,-1,-1,-1,-1,-1,-1,-1,-1,-1,-1,-1,-1,-1,-1,-1,-1,-1,-1,-1,-1,-1,-1,-1,-1,-1,-1,-1,-1,-1,-1,-1,-1,-1,-1,-1,-1,-1,-1,-1,-1,-1,-1,-1,-1,-1,-1],"loss_changes":[6.28297E9,6.3718554E8,1.4271199E9,1.3185587E8,4.1578605E8,5.0821446E8,6.316969E8,2.9517056E7,3.581811E7,1.6100589E8,3.3171584E7,5.037623E7,2.911483E8,3.448739E7,1.949952E8,3.908736E6,1.7750912E7,2.2402236E7,2.131264E7,5.74416E7,3.434205E7,1.1335648E7,1.4809264E7,2.3402536E7,1.7330496E7,8.866208E7,2.4831494E8,6.2130735E6,4.427644E6,4.452787E7,2.9986048E7,1.027264E6,1.152128E6,2.0430026E7,5.016064E6,4.093147E6,4.326593E6,5.911872E6,8.435904E6,9.795579E6,1.378352E7,3.025684E6,1.2284614E7,6.98888E5,6.120768E6,1.6973902E7,9.004256E6,4.170224E6,1.0861769E7,2.4371915E6,3.149988E6,6.3826304E7,2.324624E7,4.1269828E7,3.9986816E7,2.236991E6,1.0156785E6,1.974436E6,1.362964E6,1.7985024E7,1.0354432E7,8.809472E6,6.478592E6,0E0,0E0,0E0,0E0,0E0,0E0,0E0,0E0,0E0,0E0,0E0,0E0,0E0,0E0,0E0,0E0,0E0,0E0,0E0,0E0,0E0,0E0,0E0,0E0,0E0,0E0,0E0,0E0,0E0,0E0,0E0,0E0,0E0,0E0,0E0,0E0,0E0,0E0,0E0,0E0,0E0,0E0,0E0,0E0,0E0,0E0,0E0,0E0,0E0,0E0,0E0,0E0,0E0,0E0,0E0,0E0,0E0,0E0,0E0,0E0,0E0,0E0,0E0,0E0],"parents":[2147483647,0,0,1,1,2,2,3,3,4,4,5,5,6,6,7,7,8,8,9,9,10,10,11,11,12,12,13,13,14,14,15,15,16,16,17,17,18,18,19,19,20,20,21,21,22,22,23,23,24,24,25,25,26,26,27,27,28,28,29,29,30,30,31,31,32,32,33,33,34,34,35,35,36,36,37,37,38,38,39,39,40,40,41,41,42,42,43,43,44,44,45,45,46,46,47,47,48,48,49,49,50,50,51,51,52,52,53,53,54,54,55,55,56,56,57,57,58,58,59,59,60,60,61,61,62,62],"right_children":[2,4,6,8,10,12,14,16,18,20,22,24,26,28,30,32,34,36,38,40,42,44,46,48,50,52,54,56,58,60,62,64,66,68,70,72,74,76,78,80,82,84,86,88,90,92,94,96,98,100,102,104,106,108,110,112,114,116,118,120,122,124,126,-1,-1,-1,-1,-1,-1,-1,-1,-1,-1,-1,-1,-1,-1,-1,-1,-1,-1,-1,-1,-1,-1,-1,-1,-1,-1,-1,-1,-1,-1,-1,-1,-1,-1,-1,-1,-1,-1,-1,-1,-1,-1,-1,-1,-1,-1,-1,-1,-1,-1,-1,-1,-1,-1,-1,-1,-1,-1,-1,-1,-1,-1,-1,-1],"split_conditions":[1.404E3,1.15E3,2.2E3,9.5E2,1E0,-4.3388373E-1,-7.818315E-1,8E2,-2.5881904E-1,-2.5881904E-1,1.206E3,2.65E1,1E0,1.6236351E3,2.672E3,7.22E2,-2.5881904E-1,1.0563551E3,1.07E3,1.1589362E3,3.8104196E2,9.640185E2,2E0,1.2438733E3,1.73E3,-5E-1,1.798E3,1.5031608E3,1.8424873E3,2.448E3,2.0344166E3,-2.5881904E-1,2E0,1.5327702E2,1.4626666E3,1.4026225E2,1.6E1,2E0,2E0,4E0,1.3455834E3,2.5881904E-1,6.123234E-17,9.84E2,-4.3388373E-1,-2.5881904E-1,-7.818315E-1,1.0477098E3,1.73E3,1.596E3,-7.818315E-1,1.4224166E3,5.552183E2,2.11E3,1.998E3,1.3510142E3,-7.0710677E-1,-7.0710677E-1,5.274615E2,4.9841446E2,1.6288334E3,5.6461176E2,-7.0710677E-1,-1.7132788E1,-2.4508963E1,-1.9419525E1,-2.1971518E1,-1.6127016E1,6.463638E0,-1.8547451E1,-1.5975963E1,-1.4225301E1,-4.501413E0,1.976308E1,5.60288E0,-1.2883052E1,-1.5344049E1,-9.342768E0,-1.2499632E1,-1.3137896E1,4.790281E0,1.5366838E1,2.3683752E1,-4.302316E0,-9.264341E0,9.302923E0,8.867402E-2,-2.1519503E1,-1.7127737E1,-1.24041E1,-9.220006E0,1.6091982E1,-3.7505653E0,-1.0851667E1,-7.016378E0,-1.3415888E1,-7.194394E0,-6.0229163E0,-1.2223886E0,-4.8594737E0,6.017425E-1,3.8430264E0,9.138076E0,1.4320258E1,3.451223E1,7.8535714E0,1.8906965E1,2.3054683E0,2.5742521E1,1.0090225E1,1.5855321E1,-4.7395205E0,4.126437E-2,5.675133E0,2.4150362E0,1.1868856E1,7.2714877E0,1.2963096E1,1.9687504E1,1.3619452E1,2.26047E1,1.1172238E1,2.8565586E1,1.255297E1,3.335956E1,4.3991264E1,3.7830612E1],"split_indices":[15,34,15,15,22,7,7,15,6,6,15,1,22,16,15,15,6,16,15,16,37,16,22,16,15,6,15,16,16,15,36,6,22,37,35,37,23,22,22,26,36,6,6,15,7,6,7,16,34,34,7,36,37,34,15,16,6,6,37,37,36,37,6,0,0,0,0,0,0,0,0,0,0,0,0,0,0,0,0,0,0,0,0,0,0,0,0,0,0,0,0,0,0,0,0,0,0,0,0,0,0,0,0,0,0,0,0,0,0,0,0,0,0,0,0,0,0,0,0,0,0,0,0,0,0,0,0],"split_type":[0,0,0,0,0,0,0,0,0,0,0,0,0,0,0,0,0,0,0,0,0,0,0,0,0,0,0,0,0,0,0,0,0,0,0,0,0,0,0,0,0,0,0,0,0,0,0,0,0,0,0,0,0,0,0,0,0,0,0,0,0,0,0,0,0,0,0,0,0,0,0,0,0,0,0,0,0,0,0,0,0,0,0,0,0,0,0,0,0,0,0,0,0,0,0,0,0,0,0,0,0,0,0,0,0,0,0,0,0,0,0,0,0,0,0,0,0,0,0,0,0,0,0,0,0,0,0],"sum_hessian":[1.19746E5,6.1555E4,5.8191E4,3.6773E4,2.4782E4,3.9454E4,1.8737E4,1.5141E4,2.1632E4,6.468E3,1.8314E4,1.1685E4,2.7769E4,3.685E3,1.5052E4,4.065E3,1.1076E4,7.14E2,2.0918E4,3.245E3,3.223E3,6.703E3,1.1611E4,9.198E3,2.487E3,4.162E3,2.3607E4,2.412E3,1.273E3,1.1214E4,3.838E3,1.827E3,2.238E3,4.21E2,1.0655E4,4.43E2,2.71E2,1.1646E4,9.272E3,9.05E2,2.34E3,1.433E3,1.79E3,5.87E2,6.116E3,9.46E2,1.0665E4,2.794E3,6.404E3,1.091E3,1.396E3,2.102E3,2.06E3,1.1557E4,1.205E4,1.445E3,9.67E2,9.5E2,3.23E2,6.717E3,4.497E3,1.831E3,2.007E3,5.9E1,1.768E3,7.86E2,1.452E3,2.59E2,1.62E2,8.096E3,2.559E3,1.9E2,2.53E2,7.4E1,1.97E2,3.568E3,8.078E3,3.311E3,5.961E3,8.3E1,8.22E2,1.61E3,7.3E2,4.51E2,9.82E2,5.02E2,1.288E3,1.41E2,4.46E2,3.285E3,2.831E3,1.23E2,8.23E2,1.857E3,8.808E3,3.03E2,2.491E3,1.556E3,4.848E3,2.71E2,8.2E2,3.93E2,1.003E3,5.23E2,1.579E3,7.5E2,1.31E3,1.1367E4,1.9E2,6.072E3,5.978E3,3.11E2,1.134E3,5.24E2,4.43E2,4.62E2,4.88E2,1.64E2,1.59E2,6.19E2,6.098E3,8.9E1,4.408E3,5.4E1,1.777E3,1.248E3,7.59E2],"tree_param":{"num_deleted":"0","num_feature":"39","num_nodes":"127","size_leaf_vector":"1"}},{"base_weights":[-5.338225E-1,-1.7419643E2,2.7417184E2,-2.8227423E2,-4.7020454E1,2.4047155E1,3.5544177E2,-3.5834015E2,-2.3403983E2,1.9963348E2,-1.1470848E2,-4.5357914E1,1.357781E2,2.4736462E2,5.629979E2,-4.4071454E2,-3.365546E2,-3.1701248E1,-2.5130473E2,3.5560272E2,3.2435158E1,-1.6152E2,-6.0729675E1,-1.2322371E2,-6.4816327E0,8.798823E1,2.3146149E2,5.35737E2,2.2268993E2,5.033737E2,7.3797943E2,-4.714385E2,-4.1674677E2,-1.628326E2,-3.446799E2,-1.7759723E2,2.1326897E2,-2.6049704E2,-1.6981902E2,1.3621234E2,4.383554E2,1.3303447E2,-8.075867E1,-1.851575E2,-1.3131337E2,-1.7172499E2,-4.2067043E1,-1.7337671E2,-9.903456E1,-2.5764032E1,7.171236E1,1.17422356E2,-1.1417585E1,1.7632184E2,2.9525677E2,6.446436E2,3.9593915E2,1.3852191E2,3.1822177E2,2.821094E2,5.160862E2,6.40817E2,7.9537494E2,-2.42941E1,-2.1718872E1,-1.4610771E1,-2.1077778E1,-1.8455395E1,2.0153568E0,-1.828961E1,-1.60107E1,-2.0944078E0,-1.4282781E1,1.2435569E1,3.9503083E0,-1.4264937E1,-1.1819832E1,-1.2733848E-1,-1.0044375E1,-6.7914424E0,1.1341703E1,1.3750426E1,2.4434439E1,3.4259152E-1,9.867366E0,-5.373436E0,4.986219E0,-1.2443987E1,-8.811279E0,3.3085938E0,-7.2382517E0,-8.988675E0,3.4819112E0,-5.9326067E0,-9.9874544E-1,-8.3650465E0,-2.1489887E1,-4.0601783E0,-7.547916E0,6.3749427E-1,-2.7092507E0,1.0528266E0,5.009874E0,4.824125E0,1.1238434E1,-5.4641285E0,1.0973036E0,6.173677E0,1.0441196E1,1.3301307E1,1.8854288E1,2.386258E1,4.0990833E1,1.1808334E1,2.549737E1,-3.4876416E0,7.5308075E0,-2.6491947E0,1.637885E1,-1.5330185E0,1.667219E1,2.373043E1,2.8488592E1,2.662467E1,3.3798325E1,3.340813E1,4.100332E1],"categories":[],"categories_nodes":[],"categories_segments":[],"categories_sizes":[],"default_left":[0,0,0,0,0,0,0,0,0,0,0,0,0,0,0,0,0,0,0,0,0,0,0,0,0,0,0,0,0,0,0,0,0,0,0,0,0,0,0,0,0,0,0,0,0,0,0,0,0,0,0,0,0,0,0,0,0,0,0,0,0,0,0,0,0,0,0,0,0,0,0,0,0,0,0,0,0,0,0,0,0,0,0,0,0,0,0,0,0,0,0,0,0,0,0,0,0,0,0,0,0,0,0,0,0,0,0,0,0,0,0,0,0,0,0,0,0,0,0,0,0,0,0,0,0,0,0],"id":12,"left_children":[1,3,5,7,9,11,13,15,17,19,21,23,25,27,29,31,33,35,37,39,41,43,45,47,49,51,53,55,57,59,61,63,65,67,69,71,73,75,77,79,81,83,85,87,89,91,93,95,97,99,101,103,105,107,109,111,113,115,117,119,121,123,125,-1,-1,-1,-1,-1,-1,-1,-1,-1,-1,-1,-1,-1,-1,-1,-1,-1,-1,-1,-1,-1,-1,-1,-1,-1,-1,-1,-1,-1,-1,-1,-1,-1,-1,-1,-1,-1,-1,-1,-1,-1,-1,-1,-1,-1,-1,-1,-1,-1,-1,-1,-1,-1,-1,-1,-1,-1,-1,-1,-1,-1,-1,-1,-1],"loss_changes":[5.735132E9,1.0123676E9,9.46506E8,1.4600448E8,5.649825E8,8.8564776E7,7.8821376E8,2.7576064E7,8.512179E7,1.9001738E8,6.708509E7,2.1325352E7,1.9989752E7,1.643342E8,1.2517043E8,2.180608E6,1.7195776E7,6.855178E7,1.6773888E7,6.838518E7,4.0070988E7,1.0128864E7,2.5542224E7,2.8289E6,7.0883555E6,8.54504E6,5.07316E6,2.7469312E7,1.7115891E8,2.5107968E7,1.6532736E7,5.42112E5,9.67904E5,2.2977558E7,5.913344E6,1.7614764E7,3.387508E6,1.1991808E7,1.1843212E7,2.5521848E7,2.2368608E7,1.5117194E7,7.993815E6,4.4952E6,1.6602104E7,3.46066E6,1.7864392E7,1.11526E6,1.455216E6,4.12844E6,1.339822E6,5.042644E6,2.1835078E6,1.320876E6,1.511836E6,2.9576416E7,1.4451864E7,2.8527264E7,3.4647296E7,7.877588E6,1.8632448E7,3.980608E6,5.473536E6,0E0,0E0,0E0,0E0,0E0,0E0,0E0,0E0,0E0,0E0,0E0,0E0,0E0,0E0,0E0,0E0,0E0,0E0,0E0,0E0,0E0,0E0,0E0,0E0,0E0,0E0,0E0,0E0,0E0,0E0,0E0,0E0,0E0,0E0,0E0,0E0,0E0,0E0,0E0,0E0,0E0,0E0,0E0,0E0,0E0,0E0,0E0,0E0,0E0,0E0,0E0,0E0,0E0,0E0,0E0,0E0,0E0,0E0,0E0,0E0,0E0,0E0,0E0,0E0],"parents":[2147483647,0,0,1,1,2,2,3,3,4,4,5,5,6,6,7,7,8,8,9,9,10,10,11,11,12,12,13,13,14,14,15,15,16,16,17,17,18,18,19,19,20,20,21,21,22,22,23,23,24,24,25,25,26,26,27,27,28,28,29,29,30,30,31,31,32,32,33,33,34,34,35,35,36,36,37,37,38,38,39,39,40,40,41,41,42,42,43,43,44,44,45,45,46,46,47,47,48,48,49,49,50,50,51,51,52,52,53,53,54,54,55,55,56,56,57,57,58,58,59,59,60,60,61,61,62,62],"right_children":[2,4,6,8,10,12,14,16,18,20,22,24,26,28,30,32,34,36,38,40,42,44,46,48,50,52,54,56,58,60,62,64,66,68,70,72,74,76,78,80,82,84,86,88,90,92,94,96,98,100,102,104,106,108,110,112,114,116,118,120,122,124,126,-1,-1,-1,-1,-1,-1,-1,-1,-1,-1,-1,-1,-1,-1,-1,-1,-1,-1,-1,-1,-1,-1,-1,-1,-1,-1,-1,-1,-1,-1,-1,-1,-1,-1,-1,-1,-1,-1,-1,-1,-1,-1,-1,-1,-1,-1,-1,-1,-1,-1,-1,-1,-1,-1,-1,-1,-1,-1,-1,-1,-1,-1,-1,-1],"split_conditions":[1.588E3,1.162E3,-4.3388373E-1,9.5E2,1E0,1.5193983E3,2.308E3,7.76E2,-2.5881904E-1,-2.5881904E-1,1.354E3,1.300898E3,2.646E3,1E0,2.728E3,6.94E2,-2.5881904E-1,1.0720376E3,1.944E3,2.5411157E2,-7.0710677E-1,0E0,-7.818315E-1,1.1884286E3,2.58E1,5E-1,1.7117958E3,-5E-1,1.966E3,5.2280194E2,2.83E1,1.0943983E3,-2.5881904E-1,1.1605393E2,8.92E2,2E0,-5E-1,1.05E3,-5E-1,5E-1,9.18E2,1.6236351E3,2.604E3,1.0641653E3,-2.5881904E-1,1.85E3,1.2275974E3,3.64E2,-5E-1,-7.0710677E-1,1.4092188E3,1.7416666E3,1.627476E3,2.72E1,1.883612E3,1.7246005E3,2.624E3,1.1738727E3,3.9663205E2,1.5365673E3,2.512E3,6.4322705E2,6.587768E2,-2.42941E1,-2.1718872E1,-1.4610771E1,-2.1077778E1,-1.8455395E1,2.0153568E0,-1.828961E1,-1.60107E1,-2.0944078E0,-1.4282781E1,1.2435569E1,3.9503083E0,-1.4264937E1,-1.1819832E1,-1.2733848E-1,-1.0044375E1,-6.7914424E0,1.1341703E1,1.3750426E1,2.4434439E1,3.4259152E-1,9.867366E0,-5.373436E0,4.986219E0,-1.2443987E1,-8.811279E0,3.3085938E0,-7.2382517E0,-8.988675E0,3.4819112E0,-5.9326067E0,-9.9874544E-1,-8.3650465E0,-2.1489887E1,-4.0601783E0,-7.547916E0,6.3749427E-1,-2.7092507E0,1.0528266E0,5.009874E0,4.824125E0,1.1238434E1,-5.4641285E0,1.0973036E0,6.173677E0,1.0441196E1,1.3301307E1,1.8854288E1,2.386258E1,4.0990833E1,1.1808334E1,2.549737E1,-3.4876416E0,7.5308075E0,-2.6491947E0,1.637885E1,-1.5330185E0,1.667219E1,2.373043E1,2.8488592E1,2.662467E1,3.3798325E1,3.340813E1,4.100332E1],"split_indices":[15,15,7,15,22,16,15,15,6,6,15,16,34,22,15,15,6,16,32,37,5,7,7,16,1,6,16,6,15,37,1,16,6,37,15,22,6,15,5,5,33,16,32,16,6,34,16,23,6,6,16,35,16,1,16,16,32,16,37,16,15,37,37,0,0,0,0,0,0,0,0,0,0,0,0,0,0,0,0,0,0,0,0,0,0,0,0,0,0,0,0,0,0,0,0,0,0,0,0,0,0,0,0,0,0,0,0,0,0,0,0,0,0,0,0,0,0,0,0,0,0,0,0,0,0,0,0],"split_type":[0,0,0,0,0,0,0,0,0,0,0,0,0,0,0,0,0,0,0,0,0,0,0,0,0,0,0,0,0,0,0,0,0,0,0,0,0,0,0,0,0,0,0,0,0,0,0,0,0,0,0,0,0,0,0,0,0,0,0,0,0,0,0,0,0,0,0,0,0,0,0,0,0,0,0,0,0,0,0,0,0,0,0,0,0,0,0,0,0,0,0,0,0,0,0,0,0,0,0,0,0,0,0,0,0,0,0,0,0,0,0,0,0,0,0,0,0,0,0,0,0,0,0,0,0,0,0],"sum_hessian":[1.20216E5,7.3654E4,4.6562E4,3.9816E4,3.3838E4,1.1419E4,3.5143E4,1.5448E4,2.4368E4,7.286E3,2.6552E4,7.044E3,4.375E3,2.3111E4,1.2032E4,3.227E3,1.2221E4,1.916E3,2.2452E4,3.769E3,3.517E3,1.4219E4,1.2333E4,2.345E3,4.699E3,2.919E3,1.456E3,1.82E3,2.1291E4,8.977E3,3.055E3,1.406E3,1.821E3,5.47E2,1.1674E4,1.201E3,7.15E2,2.0174E4,2.278E3,1.033E3,2.736E3,1.862E3,1.655E3,7.974E3,6.245E3,1.774E3,1.0559E4,7.61E2,1.584E3,3.77E3,9.29E2,2.252E3,6.67E2,7.83E2,6.73E2,1.021E3,7.99E2,1.132E4,9.971E3,4.89E2,8.488E3,1.139E3,1.916E3,1.003E3,4.03E2,7E1,1.751E3,2.71E2,2.76E2,6.259E3,5.415E3,5.33E2,6.68E2,5.65E2,1.5E2,9.937E3,1.0237E4,3.57E2,1.921E3,2.58E2,7.75E2,6.46E2,2.09E3,6.29E2,1.233E3,1.442E3,2.13E2,9.77E2,6.997E3,3.98E2,5.847E3,1.717E3,5.7E1,2.363E3,8.196E3,7.45E2,1.6E1,1.181E3,4.03E2,1.601E3,2.169E3,3.35E2,5.94E2,1.886E3,3.66E2,1.69E2,4.98E2,3E2,4.83E2,4.99E2,1.74E2,5.24E2,4.97E2,3.34E2,4.65E2,6.21E2,1.0699E4,2.45E2,9.726E3,6.9E1,4.2E2,4.794E3,3.694E3,2.83E2,8.56E2,3.16E2,1.6E3],"tree_param":{"num_deleted":"0","num_feature":"39","num_nodes":"127","size_leaf_vector":"1"}},{"base_weights":[1.452961E-1,-1.743553E2,2.4570834E2,-2.6287857E2,-4.419483E1,1.3160115E1,3.251685E2,-3.28569E2,-2.0872076E2,1.5775294E2,-1.3493185E2,-6.871332E1,9.22897E1,2.1823712E2,5.22503E2,-3.8960822E2,-2.9954523E2,-1.5512473E2,-2.3726904E2,2.5570934E2,-3.9219517E1,-1.9112173E2,-1.0093877E2,-1.3546591E2,-3.795569E1,5.1094624E1,2.016086E2,4.7545047E2,1.8985077E2,4.680271E2,7.033025E2,-4.3063806E2,-3.6426883E2,-1.3774025E2,-3.050201E2,-2.2341216E2,-9.377736E1,-2.565409E2,-2.0083606E2,2.994196E1,3.134237E2,-1.20172844E2,1.1235149E1,-3.1129526E2,-1.7612816E2,-1.7902974E2,-8.529373E1,-1.742825E2,-1.10754524E2,-6.3313625E1,-7.7587063E-3,7.21115E1,-5.7059166E1,1.3601208E2,2.4905396E2,4.0733646E2,6.832641E2,1.06465515E2,2.7964807E2,3.7718335E2,5.0034656E2,6.233944E2,7.653892E2,-2.302443E1,-2.0640255E1,-1.827734E1,5.21989E0,-1.7471968E1,3.5806432E0,-1.3739243E1,-1.6023146E1,-1.2815943E1,-1.0062426E1,-1.5958166E-1,-6.366E0,-1.4362376E1,-1.2363588E1,-1.1476692E1,-9.429622E0,-8.05181E0,8.241772E0,1.8704222E1,4.897371E0,-8.583373E0,-4.8543754E0,-1.4553655E0,5.4935718E0,-1.725289E1,-1.3109116E1,-9.936275E0,-7.2241836E0,-1.0505522E1,-5.5938106E0,-8.004626E0,-3.3645546E0,-1.0004657E1,-6.0259347E0,-5.261118E0,-1.4365974E1,-2.7397592E0,-7.2886925E0,-1.121706E0,1.8966855E0,1.8605705E0,6.2180104E0,-6.246935E0,-2.5189775E-1,8.152712E0,3.7107441E0,1.0454913E1,1.638284E1,8.213149E0,2.2271528E1,2.5999723E1,3.755115E1,5.00806E0,2.325176E1,-2.949287E0,1.4391327E1,9.537169E0,2.0134462E1,2.2883913E1,2.7491087E1,2.5720016E1,3.2767166E1,3.63499E1,4.1961403E1],"categories":[],"categories_nodes":[],"categories_segments":[],"categories_sizes":[],"default_left":[0,0,0,0,0,0,0,0,0,0,0,0,0,0,0,0,0,0,0,0,0,0,0,0,0,0,0,0,0,0,0,0,0,0,0,0,0,0,0,0,0,0,0,0,0,0,0,0,0,0,0,0,0,0,0,0,0,0,0,0,0,0,0,0,0,0,0,0,0,0,0,0,0,0,0,0,0,0,0,0,0,0,0,0,0,0,0,0,0,0,0,0,0,0,0,0,0,0,0,0,0,0,0,0,0,0,0,0,0,0,0,0,0,0,0,0,0,0,0,0,0,0,0,0,0,0,0],"id":13,"left_children":[1,3,5,7,9,11,13,15,17,19,21,23,25,27,29,31,33,35,37,39,41,43,45,47,49,51,53,55,57,59,61,63,65,67,69,71,73,75,77,79,81,83,85,87,89,91,93,95,97,99,101,103,105,107,109,111,113,115,117,119,121,123,125,-1,-1,-1,-1,-1,-1,-1,-1,-1,-1,-1,-1,-1,-1,-1,-1,-1,-1,-1,-1,-1,-1,-1,-1,-1,-1,-1,-1,-1,-1,-1,-1,-1,-1,-1,-1,-1,-1,-1,-1,-1,-1,-1,-1,-1,-1,-1,-1,-1,-1,-1,-1,-1,-1,-1,-1,-1,-1,-1,-1,-1,-1,-1,-1],"loss_changes":[5.1366656E9,8.074203E8,9.201605E8,1.4831744E8,5.1984048E8,8.217456E7,7.830587E8,3.3270656E7,3.494675E7,1.6970702E8,3.7368384E7,1.2794204E7,2.9036628E7,1.75675E8,1.2813414E8,6.153984E6,1.1276544E7,3.327944E7,1.0421504E7,7.652893E7,1.1936182E7,1.323728E7,1.4887456E7,1.866512E6,4.107978E6,1.0655653E7,5.459248E6,3.3580544E7,1.6232006E8,2.9248E7,1.4495872E7,1.04064E6,2.289536E6,1.8639368E7,5.682176E6,2.69144E6,1.2727804E7,2.70464E6,1.771504E6,3.0863306E7,6.110925E7,1.317134E6,7.169792E6,1.264264E6,4.662928E6,4.2239E6,1.3675824E7,1.03468E6,1.145817E6,1.789538E6,1.4567222E6,7.150724E6,2.6936575E6,1.229548E6,3.144352E6,1.6631264E7,6.125536E6,2.5370888E7,2.8927808E7,1.245344E7,1.535296E7,4.276864E6,4.191936E6,0E0,0E0,0E0,0E0,0E0,0E0,0E0,0E0,0E0,0E0,0E0,0E0,0E0,0E0,0E0,0E0,0E0,0E0,0E0,0E0,0E0,0E0,0E0,0E0,0E0,0E0,0E0,0E0,0E0,0E0,0E0,0E0,0E0,0E0,0E0,0E0,0E0,0E0,0E0,0E0,0E0,0E0,0E0,0E0,0E0,0E0,0E0,0E0,0E0,0E0,0E0,0E0,0E0,0E0,0E0,0E0,0E0,0E0,0E0,0E0,0E0,0E0,0E0,0E0],"parents":[2147483647,0,0,1,1,2,2,3,3,4,4,5,5,6,6,7,7,8,8,9,9,10,10,11,11,12,12,13,13,14,14,15,15,16,16,17,17,18,18,19,19,20,20,21,21,22,22,23,23,24,24,25,25,26,26,27,27,28,28,29,29,30,30,31,31,32,32,33,33,34,34,35,35,36,36,37,37,38,38,39,39,40,40,41,41,42,42,43,43,44,44,45,45,46,46,47,47,48,48,49,49,50,50,51,51,52,52,53,53,54,54,55,55,56,56,57,57,58,58,59,59,60,60,61,61,62,62],"right_children":[2,4,6,8,10,12,14,16,18,20,22,24,26,28,30,32,34,36,